{"learner":{"attributes":{"scikit_learn":"{\"_estimator_type\": \"classifier\"}"},"feature_names":[],"feature_types":[],"gradient_booster":{"model":{"cats":{"enc":[],"feature_segments":[],"sorted_idx":[]},"gbtree_model_param":{"num_parallel_tree":"1","num_trees":"100"},"iteration_indptr":[0,1,2,3,4,5,6,7,8,9,10,11,12,13,14,15,16,17,18,19,20,21,22,23,24,25,26,27,28,29,30,31,32,33,34,35,36,37,38,39,40,41,42,43,44,45,46,47,48,49,50,51,52,53,54,55,56,57,58,59,60,61,62,63,64,65,66,67,68,69,70,71,72,73,74,75,76,77,78,79,80,81,82,83,84,85,86,87,88,89,90,91,92,93,94,95,96,97,98,99,100],"tree_info":[0,0,0,0,0,0,0,0,0,0,0,0,0,0,0,0,0,0,0,0,0,0,0,0,0,0,0,0,0,0,0,0,0,0,0,0,0,0,0,0,0,0,0,0,0,0,0,0,0,0,0,0,0,0,0,0,0,0,0,0,0,0,0,0,0,0,0,0,0,0,0,0,0,0,0,0,0,0,0,0,0,0,0,0,0,0,0,0,0,0,0,0,0,0,0,0,0,0,0,0],"trees":[{"base_weights":[-3.6175053E-3,-4.082219E-1,1.8153883E0,-9.455772E-1,1.1169652E0,7.1645044E-2,7.2468555E-1,1.79361E0,-1.0635854E0,1.4717475E0,-2.6744032E-1,7.053793E-1,-2.053953E-1,-1.6103372E-1,7.201118E-1,-1.1028924E0,1.4798805E0,2.0001516E0,1.0902452E0,1.7955642E0,-3.955037E-1,-7.920165E-1,8.320208E-1,-4.43776E-1,1.1484241E-1,-5.12305E-1,-1.2039713E0,1.580544E0,-3.375633E-1,7.752718E-1,7.2351927E-1,6.755367E-1,2.1831913E0,1.3526154E-1,6.7484546E-1,-2.763748E-1,-1.4054052E0,-5.01219E-1,-5.0068134E-1,4.734986E-1,2.0341036E0,-1.7155774E-2,3.8389763E-1,-2.1462837E-1,3.9068308E-1,-3.8613155E-1,-2.5331146E-1,5.28707E-1,1.894626E-1,1.244437E-1,6.058673E-1,-3.0674227E-2,6.8346286E-1,6.704049E-1,1.2456725E-1,-3.0319035E-1,2.6711804E-1,-5.386313E-2,-4.8270172E-1,-4.4363046E-1,9.1670506E-2,5.454983E-1,-1.6910754E-1,2.170339E-2,4.6887845E-1,-2.1894664E-2,6.546081E-1],"categories":[],"categories_nodes":[],"categories_segments":[],"categories_sizes":[],"default_left":[0,0,0,0,0,0,0,0,0,0,0,0,0,0,0,0,0,0,0,0,0,0,0,0,0,0,0,0,0,0,0,0,0,0,0,0,0,0,0,0,0,0,0,0,0,0,0,0,0,0,0,0,0,0,0,0,0,0,0,0,0,0,0,0,0,0,0],"id":0,"left_children":[1,3,5,7,9,11,-1,13,15,17,19,-1,21,23,-1,25,27,29,31,33,35,37,39,-1,41,43,45,47,-1,49,-1,51,53,55,-1,57,59,61,-1,63,65,-1,-1,-1,-1,-1,-1,-1,-1,-1,-1,-1,-1,-1,-1,-1,-1,-1,-1,-1,-1,-1,-1,-1,-1,-1,-1],"loss_changes":[5.243822E3,4.77792E3,1.3567515E3,1.3952793E3,7.4645264E2,2.1079869E2,0E0,2.1197833E2,4.1484668E2,2.4159106E2,8.279689E1,0E0,1.8192218E2,1.5880003E1,0E0,2.4239453E2,1.8385681E1,2.5313013E2,3.1781744E2,1.3518005E1,3.490578E1,4.7812607E1,4.5614265E1,0E0,7.417399E0,2.2084386E2,1.0280322E2,9.479065E0,0E0,5.6881416E1,0E0,6.3861E2,1.6671387E1,5.2278175E0,0E0,3.3733143E1,4.3065605E0,2.1992695E1,0E0,3.683771E1,7.80336E0,0E0,0E0,0E0,0E0,0E0,0E0,0E0,0E0,0E0,0E0,0E0,0E0,0E0,0E0,0E0,0E0,0E0,0E0,0E0,0E0,0E0,0E0,0E0,0E0,0E0,0E0],"parents":[2147483647,0,0,1,1,2,2,3,3,4,4,5,5,7,7,8,8,9,9,10,10,12,12,13,13,15,15,16,16,17,17,18,18,19,19,20,20,21,21,22,22,24,24,25,25,26,26,27,27,29,29,31,31,32,32,33,33,35,35,36,36,37,37,39,39,40,40],"right_children":[2,4,6,8,10,12,-1,14,16,18,20,-1,22,24,-1,26,28,30,32,34,36,38,40,-1,42,44,46,48,-1,50,-1,52,54,56,-1,58,60,62,-1,64,66,-1,-1,-1,-1,-1,-1,-1,-1,-1,-1,-1,-1,-1,-1,-1,-1,-1,-1,-1,-1,-1,-1,-1,-1,-1,-1],"split_conditions":[3.7349397E-1,4.8146066E-1,1E0,2.6684457E-3,1E0,2.6684457E-3,7.2468555E-1,1.9277108E-1,1E0,2.4390243E-2,2.6350901E-3,7.053793E-1,4.3820226E-1,1E0,7.201118E-1,5.1701134E-3,1E0,1E0,1E0,1.9277108E-1,1.6844563E-2,1E0,1E0,-4.43776E-1,4.3820226E-1,1E0,1E0,1E0,-3.375633E-1,1E0,7.2351927E-1,1E0,1E0,8.8709675E-2,6.7484546E-1,1E0,1.6935484E-1,1E0,-5.0068134E-1,1E0,3.8358907E-3,-1.7155774E-2,3.8389763E-1,-2.1462837E-1,3.9068308E-1,-3.8613155E-1,-2.5331146E-1,5.28707E-1,1.894626E-1,1.244437E-1,6.058673E-1,-3.0674227E-2,6.8346286E-1,6.704049E-1,1.2456725E-1,-3.0319035E-1,2.6711804E-1,-5.386313E-2,-4.8270172E-1,-4.4363046E-1,9.1670506E-2,5.454983E-1,-1.6910754E-1,2.170339E-2,4.6887845E-1,-2.1894664E-2,6.546081E-1],"split_indices":[5,4,10,1,19,1,0,5,20,2,1,0,4,10,0,1,9,10,14,5,1,9,11,0,4,13,19,12,0,14,0,11,9,0,0,9,0,7,0,14,1,0,0,0,0,0,0,0,0,0,0,0,0,0,0,0,0,0,0,0,0,0,0,0,0,0,0],"split_type":[0,0,0,0,0,0,0,0,0,0,0,0,0,0,0,0,0,0,0,0,0,0,0,0,0,0,0,0,0,0,0,0,0,0,0,0,0,0,0,0,0,0,0,0,0,0,0,0,0,0,0,0,0,0,0,0,0,0,0,0,0,0,0,0,0,0,0],"sum_hessian":[7.1229663E3,5.827518E3,1.2954486E3,4.3095522E3,1.5179655E3,3.3201706E2,9.634315E2,1.7740721E2,4.132145E3,1.2082607E3,3.0970474E2,3.516616E1,2.968509E2,4.2199394E1,1.3520782E2,4.0698162E3,6.2328987E1,5.0481628E2,7.0344446E2,1.7340555E1,2.923642E2,1.89776E2,1.070749E2,6.5481815E0,3.565121E1,5.95642E2,3.474174E3,6.0388786E1,1.940202E0,1.27689545E2,3.7712674E2,5.1112195E2,1.9232253E2,4.0016665E0,1.3338888E1,2.6265485E2,2.9709343E1,1.4369621E2,4.6079796E1,8.354995E1,2.3524948E1,3.189207E1,3.7591412E0,5.362233E2,5.9418686E1,2.8197197E3,6.544544E2,4.99602E1,1.0428586E1,1.00041664E2,2.7647879E1,3.4474963E2,1.6637231E2,1.8662317E2,5.699343E0,1.4551516E0,2.546515E0,2.4592061E2,1.6734241E1,2.861798E1,1.0913637E0,3.0315657E0,1.4066464E2,6.1843937E1,2.1706009E1,1.5764141E0,2.1948534E1],"tree_param":{"num_deleted":"0","num_feature":"26","num_nodes":"67","size_leaf_vector":"1"}},{"base_weights":[-1.4655213E-2,-3.1578046E-1,1.2743014E0,-7.319482E-1,7.7953476E-1,4.81203E-2,5.055875E-1,1.2561393E0,-8.244343E-1,1.0235704E0,-1.97543E-1,4.9601138E-1,-1.5363146E-1,-1.2079868E-1,5.033228E-1,-8.5593814E-1,1.0119787E0,1.1104116E0,-6.13449E-1,1.278312E0,-2.9179195E-1,-6.446444E-1,5.438019E-1,-3.7156403E-1,8.948749E-2,-6.42364E-1,-1.0763335E0,4.2263198E-1,1.3673289E0,9.423945E-1,5.248201E-1,9.9465644E-1,-1.2125448E0,8.270565E-2,4.8074988E-1,-1.3264155E-1,-8.632669E-1,-4.231134E-1,-4.1705298E-1,2.7052796E-1,1.4840058E0,-1.00173324E-1,1.5437673E-1,-1.5467137E-1,-3.934802E-1,-3.7989867E-1,-2.8466433E-1,3.070467E-2,4.2558327E-1,4.7155938E-1,-1.733374E-2,4.242973E-1,1.6964622E-1,3.7535557E-1,-1.3826565E-1,4.825255E-1,-5.439424E-1,-1.7656165E-1,3.4735438E-1,-1.5990121E-2,-3.995466E-1,-4.087839E-1,-1.7456217E-1,-1.3630951E-3,-2.3787595E-1,-3.017105E-2,3.0936003E-1,7.158302E-2,4.94361E-1],"categories":[],"categories_nodes":[],"categories_segments":[],"categories_sizes":[],"default_left":[0,0,0,0,0,0,0,0,0,0,0,0,0,0,0,0,0,0,0,0,0,0,0,0,0,0,0,0,0,0,0,0,0,0,0,0,0,0,0,0,0,0,0,0,0,0,0,0,0,0,0,0,0,0,0,0,0,0,0,0,0,0,0,0,0,0,0,0,0],"id":1,"left_children":[1,3,5,7,9,11,-1,13,15,17,19,-1,21,23,-1,25,27,29,31,33,35,37,39,-1,41,43,45,47,49,51,-1,53,55,57,-1,59,61,63,-1,65,67,-1,-1,-1,-1,-1,-1,-1,-1,-1,-1,-1,-1,-1,-1,-1,-1,-1,-1,-1,-1,-1,-1,-1,-1,-1,-1,-1,-1],"loss_changes":[2.626992E3,2.5014717E3,6.4585254E2,7.3216284E2,3.6051178E2,1.0479496E2,0E0,1.03043396E2,2.2072144E2,1.725924E2,4.2495544E1,0E0,9.886265E1,1.0090886E1,0E0,1.7519409E2,1.2940689E1,1.2167822E2,6.0515953E1,6.9852467E0,2.5848501E1,2.7368988E1,3.0274982E1,0E0,6.7718167E0,1.6056018E2,4.3293213E1,8.062047E0,1.1698532E1,1.613711E2,0E0,7.0210133E0,7.967198E1,4.2693453E0,0E0,2.1285398E1,7.9189377E0,2.0418678E1,0E0,2.6562187E1,5.048401E0,0E0,0E0,0E0,0E0,0E0,0E0,0E0,0E0,0E0,0E0,0E0,0E0,0E0,0E0,0E0,0E0,0E0,0E0,0E0,0E0,0E0,0E0,0E0,0E0,0E0,0E0,0E0,0E0],"parents":[2147483647,0,0,1,1,2,2,3,3,4,4,5,5,7,7,8,8,9,9,10,10,12,12,13,13,15,15,16,16,17,17,18,18,19,19,20,20,21,21,22,22,24,24,25,25,26,26,27,27,28,28,29,29,31,31,32,32,33,33,35,35,36,36,37,37,39,39,40,40],"right_children":[2,4,6,8,10,12,-1,14,16,18,20,-1,22,24,-1,26,28,30,32,34,36,38,40,-1,42,44,46,48,50,52,-1,54,56,58,-1,60,62,64,-1,66,68,-1,-1,-1,-1,-1,-1,-1,-1,-1,-1,-1,-1,-1,-1,-1,-1,-1,-1,-1,-1,-1,-1,-1,-1,-1,-1,-1,-1],"split_conditions":[3.7349397E-1,4.8146066E-1,1E0,2.6684457E-3,1E0,2.6684457E-3,5.055875E-1,1.9277108E-1,1E0,1E0,2.6350901E-3,4.9601138E-1,4.1460675E-1,1E0,5.033228E-1,9.33956E-3,1E0,1E0,1E0,1.9277108E-1,1.2675117E-2,1E0,1E0,-3.7156403E-1,2.4390243E-2,1E0,1.977528E-1,1E0,5.691057E-2,2.4390243E-2,5.248201E-1,1E0,2.6350901E-3,1.2096774E-1,4.8074988E-1,1E0,9.638554E-2,4.0650405E-2,-4.1705298E-1,5.983146E-1,4.419613E-3,-1.00173324E-1,1.5437673E-1,-1.5467137E-1,-3.934802E-1,-3.7989867E-1,-2.8466433E-1,3.070467E-2,4.2558327E-1,4.7155938E-1,-1.733374E-2,4.242973E-1,1.6964622E-1,3.7535557E-1,-1.3826565E-1,4.825255E-1,-5.439424E-1,-1.7656165E-1,3.4735438E-1,-1.5990121E-2,-3.995466E-1,-4.087839E-1,-1.7456217E-1,-1.3630951E-3,-2.3787595E-1,-3.017105E-2,3.0936003E-1,7.158302E-2,4.94361E-1],"split_indices":[5,4,10,1,19,1,0,5,20,9,1,0,4,10,0,1,10,11,20,5,1,9,11,0,2,16,4,11,2,2,0,12,1,0,0,9,5,2,0,4,1,0,0,0,0,0,0,0,0,0,0,0,0,0,0,0,0,0,0,0,0,0,0,0,0,0,0,0,0],"split_type":[0,0,0,0,0,0,0,0,0,0,0,0,0,0,0,0,0,0,0,0,0,0,0,0,0,0,0,0,0,0,0,0,0,0,0,0,0,0,0,0,0,0,0,0,0,0,0,0,0,0,0,0,0,0,0,0,0,0,0,0,0,0,0,0,0,0,0,0,0],"sum_hessian":[6.7661646E3,5.485419E3,1.2807452E3,3.9753186E3,1.5101005E3,3.2179456E2,9.589506E2,1.7615234E2,3.7991663E3,1.2082736E3,3.0182687E2,3.512502E1,2.8666956E2,4.145982E1,1.3469252E2,3.7356152E3,6.355104E1,1.147711E3,6.0562504E1,1.7363693E1,2.844632E2,1.6827492E2,1.1839464E2,5.790638E0,3.5669178E1,1.8991545E3,1.8364607E3,2.4728416E1,3.8822624E1,9.1071924E2,2.3699184E2,1.6259134E1,4.430337E1,3.971581E0,1.3392112E1,2.2346297E2,6.100022E1,1.3093561E2,3.7339302E1,9.273002E1,2.5664614E1,1.7977858E1,1.7691322E1,1.5981428E3,3.0101178E2,7.3373535E2,1.1027253E3,1.9545736E1,5.1826806E0,3.3859966E1,4.962659E0,4.0316238E2,5.0755685E2,1.3942304E1,2.3168314E0,7.4821496E0,3.682122E1,2.723691E0,1.2478899E0,2.1057516E2,1.28878E1,2.0600756E1,4.0399464E1,6.1893272E1,6.904234E1,6.2907856E1,2.9822165E1,3.26979E0,2.2394823E1],"tree_param":{"num_deleted":"0","num_feature":"26","num_nodes":"69","size_leaf_vector":"1"}},{"base_weights":[-1.1566549E-2,-2.4788363E-1,1.0429503E0,-5.7906586E-1,5.859806E-1,3.66663E-2,4.2380327E-1,1.0165062E0,-6.5186304E-1,7.742984E-1,-1.4698258E-1,4.1432843E-1,-1.17862426E-1,-9.890734E-2,4.2153153E-1,-1.7170839E-1,-7.4356925E-1,5.901443E-1,1.3905617E0,1.0507969E0,-2.180532E-1,-5.011187E-1,4.0055048E-1,-3.2682663E-1,6.281031E-2,-6.608351E-1,2.2012478E-1,-9.969747E-1,-5.963739E-1,3.39457E-1,1.3505667E0,1.438598E0,1.5793458E-1,9.30644E-2,3.99887E-1,-7.022261E-1,-8.367706E-2,-3.2628286E-1,-1.2991594E0,6.347686E-1,-5.759164E-1,-1.5838202E-2,4.3582347E-1,-2.3324253E-1,1.6367032E-1,1.026487E-1,-4.3072078E-1,-2.799248E-1,-3.9550787E-1,-1.8891506E-1,1.8905999E-1,2.865886E-1,-6.369215E-2,4.334211E-1,-1.5169942E-1,3.7370545E-1,4.7064015E-1,4.1305754E-1,-1.9070607E-1,-1.4241993E-1,2.92221E-1,1.6252707E-1,-2.511697E-1,-5.7617035E-3,-3.5951212E-1,-4.3763783E-2,-3.6681646E-1,-4.151554E-1,-2.220571E-1,2.3725362E-1,-6.029543E-2,-4.772041E-1,2.6258084E-1],"categories":[],"categories_nodes":[],"categories_segments":[],"categories_sizes":[],"default_left":[0,0,0,0,0,0,0,0,0,0,0,0,0,0,0,0,0,0,0,0,0,0,0,0,0,0,0,0,0,0,0,0,0,0,0,0,0,0,0,0,0,0,0,0,0,0,0,0,0,0,0,0,0,0,0,0,0,0,0,0,0,0,0,0,0,0,0,0,0,0,0,0,0],"id":2,"left_children":[1,3,5,7,9,11,-1,13,15,17,19,-1,21,23,-1,25,27,29,31,33,35,37,39,-1,41,43,45,47,49,51,53,55,57,59,-1,61,63,65,67,69,71,-1,-1,-1,-1,-1,-1,-1,-1,-1,-1,-1,-1,-1,-1,-1,-1,-1,-1,-1,-1,-1,-1,-1,-1,-1,-1,-1,-1,-1,-1,-1,-1],"loss_changes":[1.5335668E3,1.3886805E3,4.1910986E2,4.1866357E2,1.9743887E2,6.32667E1,0E0,6.837056E1,1.5144727E2,1.2827374E2,2.5176352E1,0E0,5.451191E1,6.7331066E0,0E0,1.06192955E2,1.0720166E2,1.668266E2,1.5225464E1,4.3582153E0,1.7993958E1,2.1566563E1,2.7065905E1,0E0,5.9757376E0,3.5090157E1,6.2724068E1,2.0543823E1,7.526306E1,2.2491406E2,3.8703888E1,4.3518677E0,1.14313545E1,2.8883743E0,0E0,1.055448E1,1.5667387E1,2.094555E1,3.00663E-1,1.2503349E1,3.5423893E1,0E0,0E0,0E0,0E0,0E0,0E0,0E0,0E0,0E0,0E0,0E0,0E0,0E0,0E0,0E0,0E0,0E0,0E0,0E0,0E0,0E0,0E0,0E0,0E0,0E0,0E0,0E0,0E0,0E0,0E0,0E0,0E0],"parents":[2147483647,0,0,1,1,2,2,3,3,4,4,5,5,7,7,8,8,9,9,10,10,12,12,13,13,15,15,16,16,17,17,18,18,19,19,20,20,21,21,22,22,24,24,25,25,26,26,27,27,28,28,29,29,30,30,31,31,32,32,33,33,35,35,36,36,37,37,38,38,39,39,40,40],"right_children":[2,4,6,8,10,12,-1,14,16,18,20,-1,22,24,-1,26,28,30,32,34,36,38,40,-1,42,44,46,48,50,52,54,56,58,60,-1,62,64,66,68,70,72,-1,-1,-1,-1,-1,-1,-1,-1,-1,-1,-1,-1,-1,-1,-1,-1,-1,-1,-1,-1,-1,-1,-1,-1,-1,-1,-1,-1,-1,-1,-1,-1],"split_conditions":[3.7349397E-1,4.8146066E-1,1E0,2.6684457E-3,1E0,2.6684457E-3,4.2380327E-1,1.9277108E-1,5.1701134E-3,1E0,2.6350901E-3,4.1432843E-1,4.1460675E-1,1E0,4.2153153E-1,4.1694464E-3,1.9550562E-1,1E0,1E0,1.9277108E-1,9.638554E-2,1E0,1E0,-3.2682663E-1,4.8780486E-2,1E0,1E0,1E0,1E0,2.4390243E-2,1E0,7.490327E-3,1E0,1.2096774E-1,3.99887E-1,4.7531687E-3,1E0,1E0,5.421687E-1,1E0,5.983146E-1,-1.5838202E-2,4.3582347E-1,-2.3324253E-1,1.6367032E-1,1.026487E-1,-4.3072078E-1,-2.799248E-1,-3.9550787E-1,-1.8891506E-1,1.8905999E-1,2.865886E-1,-6.369215E-2,4.334211E-1,-1.5169942E-1,3.7370545E-1,4.7064015E-1,4.1305754E-1,-1.9070607E-1,-1.4241993E-1,2.92221E-1,1.6252707E-1,-2.511697E-1,-5.7617035E-3,-3.5951212E-1,-4.3763783E-2,-3.6681646E-1,-4.151554E-1,-2.220571E-1,2.3725362E-1,-6.029543E-2,-4.772041E-1,2.6258084E-1],"split_indices":[5,4,10,1,19,1,0,5,1,14,1,0,4,10,0,1,4,11,9,5,5,16,9,0,2,13,9,16,20,2,9,1,20,0,0,1,9,9,5,12,4,0,0,0,0,0,0,0,0,0,0,0,0,0,0,0,0,0,0,0,0,0,0,0,0,0,0,0,0,0,0,0,0],"split_type":[0,0,0,0,0,0,0,0,0,0,0,0,0,0,0,0,0,0,0,0,0,0,0,0,0,0,0,0,0,0,0,0,0,0,0,0,0,0,0,0,0,0,0,0,0,0,0,0,0,0,0,0,0,0,0,0,0,0,0,0,0,0,0,0,0,0,0,0,0,0,0,0,0],"sum_hessian":[6.1519136E3,5.026288E3,1.1256256E3,3.5977078E3,1.4285804E3,3.0274518E2,8.228804E2,1.5641568E2,3.441292E3,1.1365214E3,2.920591E2,3.0391972E1,2.723532E2,4.060647E1,1.1580921E2,5.523219E2,2.8889702E3,8.7654614E2,2.5997525E2,1.5586633E1,2.7647247E2,1.5660812E2,1.157451E2,4.8940454E0,3.571242E1,2.453563E2,3.069656E2,1.0593917E3,1.8295784E3,6.603094E2,2.1623677E2,2.50063E2,9.912235E0,3.8496442E0,1.1736988E1,5.9143982E1,2.1732848E2,1.296197E2,2.6988413E1,9.363539E1,2.2109713E1,3.3858356E1,1.854067E0,2.2404977E2,2.1306519E1,2.8663394E2,2.0331661E1,8.869644E2,1.7242734E2,1.7816334E3,4.794492E1,3.1169128E2,3.4861807E2,2.060073E2,1.0229476E1,1.0502339E2,1.4503961E2,3.6189623E0,6.293273E0,2.6213574E0,1.228287E0,5.495367E0,5.3648617E1,2.064076E2,1.0920892E1,1.0887243E2,2.0747274E1,2.2155773E1,4.83264E0,7.894598E1,1.4689413E1,1.2954768E1,9.154945E0],"tree_param":{"num_deleted":"0","num_feature":"26","num_nodes":"73","size_leaf_vector":"1"}},{"base_weights":[-6.3278456E-3,-1.9480519E-1,8.9795244E-1,-4.7654414E-1,4.2627808E-1,2.255507E-2,3.8080177E-1,8.576236E-1,-5.342256E-1,6.1893725E-1,-9.18484E-2,3.69691E-1,-9.8167434E-2,-9.02998E-2,3.7794995E-1,-4.3686214E-1,-1.081248E0,2.4588062E-1,8.734779E-1,5.2559208E-2,-6.398007E-1,-6.001693E-1,1.708262E-1,6.0586816E-1,-2.9370922E-1,-2.3350799E-1,-6.7700034E-1,-1.2483888E0,-2.9193214E-1,-5.8866315E-2,1.2516454E0,3.95752E-1,4.7912478E-1,-2.5714405E-2,8.284869E-1,-4.7470355E-1,-1.1311882E0,-6.815723E-1,4.2436513E-1,3.497741E-1,-6.8126875E-1,2.8440282E-1,-2.511923E-1,-2.6810753E-1,2.8474772E-2,-4.6838187E-2,-4.1171744E-1,-3.0947286E-1,-1.7814693E-1,-3.8061675E-1,-6.649614E-3,-2.0996338E-2,-2.3359612E-1,-1.398423E-1,3.3110884E-1,4.1015443E-1,4.2631023E-2,1.9187106E-1,-1.2810741E-1,2.8871614E-1,-2.8271405E-2,3.271739E-1,-3.3076537E-1,-3.307193E-1,-7.303117E-2,1.7742409E-1,-3.7772092E-1,-2.4019514E-1,2.8165603E-2,2.6784804E-1,-2.554378E-1,2.6575693E-1,5.9742976E-2,-3.4973386E-1,2.8965458E-1],"categories":[],"categories_nodes":[],"categories_segments":[],"categories_sizes":[],"default_left":[0,0,0,0,0,0,0,0,0,0,0,0,0,0,0,0,0,0,0,0,0,0,0,0,0,0,0,0,0,0,0,0,0,0,0,0,0,0,0,0,0,0,0,0,0,0,0,0,0,0,0,0,0,0,0,0,0,0,0,0,0,0,0,0,0,0,0,0,0,0,0,0,0,0,0],"id":3,"left_children":[1,3,5,7,9,11,-1,13,15,17,19,-1,21,23,-1,25,27,29,31,33,35,37,39,41,43,45,47,49,51,53,55,-1,57,59,61,63,65,67,69,71,73,-1,-1,-1,-1,-1,-1,-1,-1,-1,-1,-1,-1,-1,-1,-1,-1,-1,-1,-1,-1,-1,-1,-1,-1,-1,-1,-1,-1,-1,-1,-1,-1,-1,-1],"loss_changes":[9.3981036E2,7.9865985E2,3.0917566E2,2.4206775E2,1.4225226E2,4.1644115E1,0E0,4.9866447E1,1.5984326E2,9.840036E1,3.0654842E1,0E0,3.5137127E1,5.8150153E0,0E0,1.2470477E2,5.954706E1,1.295994E2,1.0779877E2,1.8678463E1,6.0172234E0,7.8570213E0,2.6115328E1,5.3995132E0,7.424983E0,1.21933205E2,3.394989E1,9.308533E0,8.659222E0,1.5452713E2,1.2408829E1,0E0,4.8088646E1,1.9049831E1,1.5464209E1,8.76018E0,5.0610733E0,7.8728523E0,5.120414E0,1.1202425E1,2.4897446E1,0E0,0E0,0E0,0E0,0E0,0E0,0E0,0E0,0E0,0E0,0E0,0E0,0E0,0E0,0E0,0E0,0E0,0E0,0E0,0E0,0E0,0E0,0E0,0E0,0E0,0E0,0E0,0E0,0E0,0E0,0E0,0E0,0E0,0E0],"parents":[2147483647,0,0,1,1,2,2,3,3,4,4,5,5,7,7,8,8,9,9,10,10,12,12,13,13,15,15,16,16,17,17,18,18,19,19,20,20,21,21,22,22,23,23,24,24,25,25,26,26,27,27,28,28,29,29,30,30,32,32,33,33,34,34,35,35,36,36,37,37,38,38,39,39,40,40],"right_children":[2,4,6,8,10,12,-1,14,16,18,20,-1,22,24,-1,26,28,30,32,34,36,38,40,42,44,46,48,50,52,54,56,-1,58,60,62,64,66,68,70,72,74,-1,-1,-1,-1,-1,-1,-1,-1,-1,-1,-1,-1,-1,-1,-1,-1,-1,-1,-1,-1,-1,-1,-1,-1,-1,-1,-1,-1,-1,-1,-1,-1,-1,-1],"split_conditions":[3.7349397E-1,4.6067417E-1,1E0,2.6684457E-3,1E0,2.6684457E-3,3.8080177E-1,1.9277108E-1,1E0,1E0,1.2675117E-2,3.69691E-1,2.9719102E-1,2.0289855E-2,3.7794995E-1,9.33956E-3,1E0,1E0,2.4390243E-2,3.898551E-1,2.1014009E-2,6.1445785E-1,1E0,1E0,4.032258E-2,1E0,1.11235954E-1,1E0,2.1428572E-1,1E0,1E0,3.95752E-1,1E0,2.6350901E-3,8.130081E-2,1.9855073E-1,9.275363E-2,1E0,7.108434E-1,5.1367576E-3,6.44382E-1,2.8440282E-1,-2.511923E-1,-2.6810753E-1,2.8474772E-2,-4.6838187E-2,-4.1171744E-1,-3.0947286E-1,-1.7814693E-1,-3.8061675E-1,-6.649614E-3,-2.0996338E-2,-2.3359612E-1,-1.398423E-1,3.3110884E-1,4.1015443E-1,4.2631023E-2,1.9187106E-1,-1.2810741E-1,2.8871614E-1,-2.8271405E-2,3.271739E-1,-3.3076537E-1,-3.307193E-1,-7.303117E-2,1.7742409E-1,-3.7772092E-1,-2.4019514E-1,2.8165603E-2,2.6784804E-1,-2.554378E-1,2.6575693E-1,5.9742976E-2,-3.4973386E-1,2.8965458E-1],"split_indices":[5,4,10,1,19,1,0,5,16,10,1,0,4,3,0,1,19,14,2,3,1,5,9,16,0,9,4,20,6,11,9,0,12,1,2,3,3,13,5,1,4,0,0,0,0,0,0,0,0,0,0,0,0,0,0,0,0,0,0,0,0,0,0,0,0,0,0,0,0,0,0,0,0,0,0],"split_type":[0,0,0,0,0,0,0,0,0,0,0,0,0,0,0,0,0,0,0,0,0,0,0,0,0,0,0,0,0,0,0,0,0,0,0,0,0,0,0,0,0,0,0,0,0,0,0,0,0,0,0,0,0,0,0,0,0,0,0,0,0,0,0,0,0,0,0,0,0,0,0,0,0,0,0],"sum_hessian":[5.5121167E3,4.5620435E3,9.500731E2,3.138551E3,1.4234928E3,2.833197E2,6.667534E2,1.2949411E2,3.009057E3,1.0375118E3,3.85981E2,2.487201E1,2.584477E2,3.880779E1,9.0686325E1,2.5559304E3,4.531265E2,4.2159094E2,6.1592084E2,3.0619125E2,7.978971E1,8.974061E1,1.6870708E2,8.327701E0,3.048009E1,1.3850298E3,1.1709005E3,3.7346265E2,7.966383E1,3.2427655E2,9.7314384E1,2.880375E2,3.2788336E2,2.790121E2,2.717917E1,6.119527E1,1.859444E1,8.344532E1,6.2952847E0,1.3991347E2,2.879362E1,7.009121E0,1.3185799E0,1.1470943E1,1.9009148E1,1.2979767E3,8.70531E1,2.2031578E2,9.505847E2,3.673367E2,6.12594E0,5.5499798E1,2.4164038E1,2.4059065E2,8.368589E1,8.792645E1,9.387937E0,2.7881055E2,4.9072796E1,1.7248363E1,2.6176373E2,2.4314316E1,2.864856E0,1.5462034E1,4.573324E1,1.0345157E0,1.7559923E1,7.230915E1,1.1136172E1,4.824137E0,1.4711474E0,2.9619436E1,1.1029403E2,2.2473606E1,6.3200135E0],"tree_param":{"num_deleted":"0","num_feature":"26","num_nodes":"75","size_leaf_vector":"1"}},{"base_weights":[-2.2262523E-3,-1.5247284E-1,7.8911394E-1,-4.5352167E-1,2.3099862E-1,1.5937725E-2,3.549259E-1,-3.5986346E-1,-1.0558535E0,4.970472E-1,-1.06029436E-1,3.4117657E-1,-7.7803925E-2,1.1602301E-1,-4.8523337E-1,3.8654205E-1,-1.129552E0,1.0492712E0,3.2884285E-1,-1.9851492E-1,5.3666234E-1,-2.4569741E-1,5.248953E-1,-4.849887E-3,9.0815306E-1,-6.8798214E-1,-3.3037287E-1,-3.5933346E-1,3.2566476E-1,-3.5471562E-1,-9.762179E-2,1.1216668E0,1.8236613E-1,1.6468051E-1,9.998546E-1,7.629429E-1,-2.4534075E-1,2.657833E0,2.2967707E-1,-8.54617E-2,-3.472954E-1,3.085723E-1,3.8328755E-1,2.1040694E-1,-4.410032E-2,-1.3339491E-2,5.3696954E-1,-1.7928073E-1,-3.0527768E-1,-8.61584E-2,-3.6381555E-1,2.387826E-1,-2.5970668E-1,3.082487E-1,4.6293753E-1,3.8278276E-1,-2.2000447E-1,-2.1194631E-2,3.133489E-1,3.204103E-1,-2.1196939E-1,3.107988E-2,3.4372443E-1,-5.7855982E-2,-3.6776936E-1,1.8332799E-1,8.358579E-1,2.812562E-1,-7.515144E-2,2.2898205E-2,-1.8477975E-1,-8.953471E-3,3.4028512E-1],"categories":[],"categories_nodes":[],"categories_segments":[],"categories_sizes":[],"default_left":[0,0,0,0,0,0,0,0,0,0,0,0,0,0,0,0,0,0,0,0,0,0,0,0,0,0,0,0,0,0,0,0,0,0,0,0,0,0,0,0,0,0,0,0,0,0,0,0,0,0,0,0,0,0,0,0,0,0,0,0,0,0,0,0,0,0,0,0,0,0,0,0,0],"id":4,"left_children":[1,3,5,7,9,11,-1,13,15,17,19,-1,21,23,25,27,29,31,33,35,37,39,41,43,45,47,49,-1,-1,-1,51,53,55,57,59,61,63,65,67,69,-1,71,-1,-1,-1,-1,-1,-1,-1,-1,-1,-1,-1,-1,-1,-1,-1,-1,-1,-1,-1,-1,-1,-1,-1,-1,-1,-1,-1,-1,-1,-1,-1],"loss_changes":[5.905597E2,4.8201645E2,2.414075E2,1.3156375E2,1.6472925E2,2.831671E1,0E0,1.2091049E2,3.383914E1,9.500598E1,4.8313644E1,0E0,2.53014E1,4.0522877E1,5.0118103E1,1.9041164E1,1.6197144E1,1.4808685E1,8.6672195E1,3.2139923E1,6.6002304E1,2.8432026E1,8.483223E0,3.7061153E1,4.714345E1,2.0049774E1,3.43599E1,0E0,0E0,0E0,1.1438545E1,7.169281E0,2.0594765E1,1.3145746E2,1.8759277E1,8.2619705E0,3.4633728E1,1.6703186E0,3.0981194E1,1.4392343E1,0E0,1.2235933E1,0E0,0E0,0E0,0E0,0E0,0E0,0E0,0E0,0E0,0E0,0E0,0E0,0E0,0E0,0E0,0E0,0E0,0E0,0E0,0E0,0E0,0E0,0E0,0E0,0E0,0E0,0E0,0E0,0E0,0E0,0E0],"parents":[2147483647,0,0,1,1,2,2,3,3,4,4,5,5,7,7,8,8,9,9,10,10,12,12,13,13,14,14,15,15,16,16,17,17,18,18,19,19,20,20,21,21,22,22,23,23,24,24,25,25,26,26,30,30,31,31,32,32,33,33,34,34,35,35,36,36,37,37,38,38,39,39,41,41],"right_children":[2,4,6,8,10,12,-1,14,16,18,20,-1,22,24,26,28,30,32,34,36,38,40,42,44,46,48,50,-1,-1,-1,52,54,56,58,60,62,64,66,68,70,-1,72,-1,-1,-1,-1,-1,-1,-1,-1,-1,-1,-1,-1,-1,-1,-1,-1,-1,-1,-1,-1,-1,-1,-1,-1,-1,-1,-1,-1,-1,-1,-1],"split_conditions":[3.7349397E-1,4.0393257E-1,1E0,1E0,1E0,2.6684457E-3,3.549259E-1,5.1701134E-3,2.6350901E-3,5.1701134E-3,1E0,3.4117657E-1,5.567416E-1,1E0,1.9550562E-1,1.8072289E-1,1E0,1E0,1E0,2.6350901E-3,3.2258064E-2,1E0,1E0,2.6684457E-3,1E0,1.4192795E-2,1E0,-3.5933346E-1,3.2566476E-1,-3.5471562E-1,1.4457831E-1,1E0,2.6350901E-3,1E0,1E0,1.9277108E-1,1E0,2.33489E-3,8.5050035E-3,2.1428572E-1,-3.472954E-1,1E0,3.8328755E-1,2.1040694E-1,-4.410032E-2,-1.3339491E-2,5.3696954E-1,-1.7928073E-1,-3.0527768E-1,-8.61584E-2,-3.6381555E-1,2.387826E-1,-2.5970668E-1,3.082487E-1,4.6293753E-1,3.8278276E-1,-2.2000447E-1,-2.1194631E-2,3.133489E-1,3.204103E-1,-2.1196939E-1,3.107988E-2,3.4372443E-1,-5.7855982E-2,-3.6776936E-1,1.8332799E-1,8.358579E-1,2.812562E-1,-7.515144E-2,2.2898205E-2,-1.8477975E-1,-8.953471E-3,3.4028512E-1],"split_indices":[5,4,10,16,19,1,0,1,1,1,13,0,4,13,4,5,19,9,14,1,0,9,11,1,10,1,9,0,0,0,5,13,1,11,18,5,9,1,1,6,0,14,0,0,0,0,0,0,0,0,0,0,0,0,0,0,0,0,0,0,0,0,0,0,0,0,0,0,0,0,0,0,0],"split_type":[0,0,0,0,0,0,0,0,0,0,0,0,0,0,0,0,0,0,0,0,0,0,0,0,0,0,0,0,0,0,0,0,0,0,0,0,0,0,0,0,0,0,0,0,0,0,0,0,0,0,0,0,0,0,0,0,0,0,0,0,0,0,0,0,0,0,0,0,0,0,0,0,0],"sum_hessian":[4.9650083E3,4.173433E3,7.9157513E2,2.3378745E3,1.8355588E3,2.6754834E2,5.2402686E2,2.024653E3,3.1322144E2,1.0255327E3,8.1002606E2,1.9782501E1,2.4776582E2,4.221825E2,1.6024705E3,1.5019593E1,2.9820184E2,2.3821658E2,7.8731616E2,7.0872876E2,1.0129731E2,1.9424693E2,5.3518887E1,3.6715186E2,5.5030647E1,6.924492E2,9.1002124E2,4.379587E0,1.0640006E1,2.8353925E2,1.46626E1,2.1958508E2,1.86315E1,6.3356146E2,1.5375471E2,3.2203926E1,6.7652484E2,1.1838585E1,8.9458725E1,1.6614755E2,2.8099394E1,4.2666985E1,1.0851901E1,6.0860973E1,3.0629086E2,2.690868E1,2.8121965E1,5.456453E2,1.468039E2,8.6882996E2,4.1191326E1,6.7608194E0,7.9017806E0,1.822916E2,3.7293488E1,8.311841E0,1.031966E1,5.005865E2,1.3297498E2,1.4820723E2,5.547481E0,1.2295976E1,1.9907951E1,6.432875E2,3.323736E1,1.0385966E0,1.0799989E1,3.5772903E1,5.3685818E1,1.2797299E2,3.8174557E1,3.0947166E1,1.1719818E1],"tree_param":{"num_deleted":"0","num_feature":"26","num_nodes":"73","size_leaf_vector":"1"}},{"base_weights":[7.581767E-4,-1.1860853E-1,7.0027876E-1,-3.7700102E-1,1.6618693E-1,1.4256021E-2,3.3815414E-1,-2.9325062E-1,-1.0145726E0,2.2059749E-1,-8.0014884E-1,3.208223E-1,-5.897513E-2,-1.8017608E-1,-6.89229E-1,3.3102039E-1,-1.087873E0,4.1900223E-1,-1.9026408E-2,8.1742465E-1,-1.0400404E0,-1.07335605E-1,5.0561386E-1,-5.6584185E-1,-6.9584884E-2,-7.751339E-1,-3.2739764E-1,-3.1646317E-1,3.033699E-1,-3.3770847E-1,-1.03822336E-1,3.0985066E-1,1.0209924E0,2.68284E-1,-1.9340253E-1,-4.084026E-1,3.899292E-1,-1.2887425E0,5.8460176E-1,-2.1417607E-1,5.305075E-1,-1.9717413E-1,2.5493829E-3,-6.711584E-3,-2.9414156E-1,-2.4654593E-1,-7.321073E-2,-1.5637699E-1,1.4922784E-1,2.0923696E-1,-2.9264483E-1,1.7442214E-1,-3.8229434E-3,3.5114023E-1,4.178089E-2,5.308928E-2,4.996711E-1,-2.3225358E-2,-1.5836206E-1,-4.024359E-1,3.3041817E-1,3.4472248E-1,-3.7200257E-2,-3.3607584E-1,-2.543326E-2,2.093181E-1,-1.5278889E-1],"categories":[],"categories_nodes":[],"categories_segments":[],"categories_sizes":[],"default_left":[0,0,0,0,0,0,0,0,0,0,0,0,0,0,0,0,0,0,0,0,0,0,0,0,0,0,0,0,0,0,0,0,0,0,0,0,0,0,0,0,0,0,0,0,0,0,0,0,0,0,0,0,0,0,0,0,0,0,0,0,0,0,0,0,0,0,0],"id":5,"left_children":[1,3,5,7,9,11,-1,13,15,17,19,-1,21,23,25,27,29,31,33,35,37,39,-1,41,43,45,47,-1,-1,-1,49,51,53,55,57,-1,-1,59,61,63,65,-1,-1,-1,-1,-1,-1,-1,-1,-1,-1,-1,-1,-1,-1,-1,-1,-1,-1,-1,-1,-1,-1,-1,-1,-1,-1],"loss_changes":[3.7670914E2,2.8366675E2,1.9258017E2,1.0761304E2,9.660489E1,1.9633238E1,0E0,7.991933E1,2.3463318E1,8.258933E1,3.886883E1,0E0,2.0239573E1,5.9328655E1,1.2078079E1,1.3196852E1,8.159363E0,6.2124207E1,3.95172E1,1.5655524E1,3.540577E1,1.5944717E1,0E0,1.628273E1,4.654831E1,7.730957E0,1.2707697E1,0E0,0E0,0E0,7.1981997E0,7.060196E1,1.900261E1,3.7722275E1,1.899861E1,0E0,0E0,1.0887108E1,4.9717617E0,2.3317642E1,6.200494E0,0E0,0E0,0E0,0E0,0E0,0E0,0E0,0E0,0E0,0E0,0E0,0E0,0E0,0E0,0E0,0E0,0E0,0E0,0E0,0E0,0E0,0E0,0E0,0E0,0E0,0E0],"parents":[2147483647,0,0,1,1,2,2,3,3,4,4,5,5,7,7,8,8,9,9,10,10,12,12,13,13,14,14,15,15,16,16,17,17,18,18,19,19,20,20,21,21,23,23,24,24,25,25,26,26,30,30,31,31,32,32,33,33,34,34,37,37,38,38,39,39,40,40],"right_children":[2,4,6,8,10,12,-1,14,16,18,20,-1,22,24,26,28,30,32,34,36,38,40,-1,42,44,46,48,-1,-1,-1,50,52,54,56,58,-1,-1,60,62,64,66,-1,-1,-1,-1,-1,-1,-1,-1,-1,-1,-1,-1,-1,-1,-1,-1,-1,-1,-1,-1,-1,-1,-1,-1,-1,-1],"split_conditions":[3.7349397E-1,3.8258427E-1,1E0,1E0,1E0,2.6684457E-3,3.3815414E-1,1.2675117E-2,2.6350901E-3,1E0,2.6350901E-3,3.208223E-1,1E0,1.16292134E-1,5.217391E-1,1.8072289E-1,1E0,1E0,6.754503E-3,1.8072289E-1,1E0,5.983146E-1,5.0561386E-1,1E0,1E0,2.0481928E-1,2.8519012E-2,-3.1646317E-1,3.033699E-1,-3.3770847E-1,1.4457831E-1,9.33956E-3,1E0,6.671114E-3,1.4192795E-2,-4.084026E-1,3.899292E-1,7.8932583E-1,1.9057971E-1,1E0,1E0,-1.9717413E-1,2.5493829E-3,-6.711584E-3,-2.9414156E-1,-2.4654593E-1,-7.321073E-2,-1.5637699E-1,1.4922784E-1,2.0923696E-1,-2.9264483E-1,1.7442214E-1,-3.8229434E-3,3.5114023E-1,4.178089E-2,5.308928E-2,4.996711E-1,-2.3225358E-2,-1.5836206E-1,-4.024359E-1,3.3041817E-1,3.4472248E-1,-3.7200257E-2,-3.3607584E-1,-2.543326E-2,2.093181E-1,-1.5278889E-1],"split_indices":[5,4,10,16,9,1,0,1,1,19,1,0,8,4,3,5,19,11,1,5,21,4,0,13,9,5,1,0,0,0,5,1,18,1,1,0,0,4,3,7,16,0,0,0,0,0,0,0,0,0,0,0,0,0,0,0,0,0,0,0,0,0,0,0,0,0,0],"split_type":[0,0,0,0,0,0,0,0,0,0,0,0,0,0,0,0,0,0,0,0,0,0,0,0,0,0,0,0,0,0,0,0,0,0,0,0,0,0,0,0,0,0,0,0,0,0,0,0,0,0,0,0,0,0,0,0,0,0,0,0,0,0,0,0,0,0,0],"sum_hessian":[4.5095215E3,3.8528916E3,6.566298E2,2.0199155E3,1.8329761E3,2.5227008E2,4.0435974E2,1.78668E3,2.3323553E2,1.7360004E3,9.6975624E1,1.5489294E1,2.3678078E2,1.3909415E3,3.9573856E2,1.186736E1,2.2136818E2,9.492708E2,7.867296E2,1.2213473E1,8.4762146E1,2.313065E2,5.474273E0,3.0905484E2,1.0818866E3,3.188871E2,7.685147E1,3.725679E0,8.141681E0,2.1303622E2,8.33196E0,8.0485156E2,1.4441925E2,2.9693948E2,4.8979013E2,1.8834407E0,1.0330032E1,7.368857E1,1.1073579E1,1.9868967E2,3.2616844E1,2.6649783E2,4.2557026E1,1.0295479E3,5.233879E1,2.9261737E2,2.6269722E1,6.2524364E1,1.4327109E1,4.445376E0,3.8865843E0,4.3655844E2,3.6829312E2,1.2320526E2,2.1213991E1,2.79781E2,1.7158457E1,3.645919E2,1.2519824E2,7.252785E1,1.1607244E0,5.817639E0,5.2559404E0,2.387242E1,1.7481725E2,2.8381552E1,4.235291E0],"tree_param":{"num_deleted":"0","num_feature":"26","num_nodes":"67","size_leaf_vector":"1"}},{"base_weights":[7.597729E-4,-9.263312E-2,6.1864066E-1,-3.4009746E-1,9.479704E-2,1.231564E-2,3.2674384E-1,-2.7271035E-1,-9.6577156E-1,4.5400834E-1,-7.2140805E-3,3.0479476E-1,-4.482313E-2,6.816866E-1,-3.1209344E-1,3.6622888E-1,-1.0412022E0,3.516382E-1,1.1393577E0,3.426617E-2,-9.6289676E-1,-3.8079375E-1,1.2170627E-1,-1.04613975E-1,3.3968726E-1,-2.7392635E-1,-3.4390557E-1,-2.6164794E-1,2.7983487E-1,-3.2530957E-1,2.7448425E-1,2.0452107E-1,7.916353E-1,1.2934126E0,-3.614061E-1,1.6271453E-2,5.565975E-1,-1.1681463E0,3.8708812E-1,-2.2762492E-1,-3.4047577E-1,2.038187E-1,-4.8092547E-1,-3.8277623E-1,6.0889795E-2,-5.550757E-2,-1.8175748E-1,-2.5004974E-1,3.194424E-1,2.4713188E-2,2.2959806E-1,3.8288155E-1,1.9950828E-1,4.270127E-1,2.1674079E-1,2.52191E-1,-3.1453583E-1,3.515708E-2,-6.665352E-2,-3.637608E-1,2.1536887E-2,1.8984956E-1,-1.5285617E-1,-2.2892338E-1,7.805509E-3,2.0912072E-1,2.8225437E-2,-3.157887E-1,1.151312E-1],"categories":[],"categories_nodes":[],"categories_segments":[],"categories_sizes":[],"default_left":[0,0,0,0,0,0,0,0,0,0,0,0,0,0,0,0,0,0,0,0,0,0,0,0,0,0,0,0,0,0,0,0,0,0,0,0,0,0,0,0,0,0,0,0,0,0,0,0,0,0,0,0,0,0,0,0,0,0,0,0,0,0,0,0,0,0,0,0,0],"id":6,"left_children":[1,3,5,7,9,11,-1,13,15,17,19,-1,21,23,25,27,29,31,33,35,37,39,41,43,-1,45,-1,-1,-1,-1,47,49,51,53,55,57,-1,59,61,63,-1,65,67,-1,-1,-1,-1,-1,-1,-1,-1,-1,-1,-1,-1,-1,-1,-1,-1,-1,-1,-1,-1,-1,-1,-1,-1,-1,-1],"loss_changes":[2.4146971E2,1.686351E2,1.5673068E2,6.579895E1,7.582669E1,1.38711605E1,0E0,5.3432373E1,1.5648636E1,3.1709557E1,6.395724E1,0E0,1.2861677E1,2.0110632E1,4.300522E1,7.046442E0,8.479233E0,2.5707466E1,1.4115639E1,5.0645344E1,1.9048164E1,8.537761E0,7.7136803E0,7.9944305E0,0E0,3.8316788E1,0E0,0E0,0E0,0E0,5.5936046E0,2.0544891E1,5.274414E0,2.9603424E0,6.0654273E0,3.6899525E1,0E0,3.3071823E0,2.439487E0,8.786133E0,0E0,7.30369E0,9.674614E0,0E0,0E0,0E0,0E0,0E0,0E0,0E0,0E0,0E0,0E0,0E0,0E0,0E0,0E0,0E0,0E0,0E0,0E0,0E0,0E0,0E0,0E0,0E0,0E0,0E0,0E0],"parents":[2147483647,0,0,1,1,2,2,3,3,4,4,5,5,7,7,8,8,9,9,10,10,12,12,13,13,14,14,15,15,16,16,17,17,18,18,19,19,20,20,21,21,22,22,23,23,25,25,30,30,31,31,32,32,33,33,34,34,35,35,37,37,38,38,39,39,41,41,42,42],"right_children":[2,4,6,8,10,12,-1,14,16,18,20,-1,22,24,26,28,30,32,34,36,38,40,42,44,-1,46,-1,-1,-1,-1,48,50,52,54,56,58,-1,60,62,64,-1,66,68,-1,-1,-1,-1,-1,-1,-1,-1,-1,-1,-1,-1,-1,-1,-1,-1,-1,-1,-1,-1,-1,-1,-1,-1,-1,-1],"split_conditions":[3.7349397E-1,3.4044945E-1,1E0,1E0,5.1701134E-3,2.6684457E-3,3.2674384E-1,2.6684457E-3,2.6350901E-3,1E0,1E0,3.0479476E-1,2.9719102E-1,1.9277108E-1,1E0,1.8072289E-1,1E0,5.55618E-1,1E0,1E0,1E0,1E0,1E0,8.130081E-3,3.3968726E-1,1.2675117E-2,-3.4390557E-1,-2.6164794E-1,2.7983487E-1,-3.2530957E-1,3.280899E-1,1.884058E-1,2.6684457E-3,1E0,4.032258E-2,1.2675117E-2,5.565975E-1,7.286517E-1,2.5301206E-1,7.1428575E-2,-3.4047577E-1,3.3913043E-1,5.983146E-1,-3.8277623E-1,6.0889795E-2,-5.550757E-2,-1.8175748E-1,-2.5004974E-1,3.194424E-1,2.4713188E-2,2.2959806E-1,3.8288155E-1,1.9950828E-1,4.270127E-1,2.1674079E-1,2.52191E-1,-3.1453583E-1,3.515708E-2,-6.665352E-2,-3.637608E-1,2.1536887E-2,1.8984956E-1,-1.5285617E-1,-2.2892338E-1,7.805509E-3,2.0912072E-1,2.8225437E-2,-3.157887E-1,1.151312E-1],"split_indices":[5,4,10,16,1,1,0,1,1,13,9,0,4,5,9,5,19,4,9,23,21,16,9,2,0,1,0,0,0,0,4,3,1,7,0,1,0,4,5,6,0,3,4,0,0,0,0,0,0,0,0,0,0,0,0,0,0,0,0,0,0,0,0,0,0,0,0,0,0],"split_type":[0,0,0,0,0,0,0,0,0,0,0,0,0,0,0,0,0,0,0,0,0,0,0,0,0,0,0,0,0,0,0,0,0,0,0,0,0,0,0,0,0,0,0,0,0,0,0,0,0,0,0,0,0,0,0,0,0,0,0,0,0,0,0,0,0,0,0,0,0],"sum_hessian":[4.1825117E3,3.6340708E3,5.4844086E2,1.5658552E3,2.0682158E3,2.4008165E2,3.083592E2,1.4149016E3,1.5095355E2,4.5667554E2,1.6115402E3,1.202777E1,2.280539E2,5.542561E1,1.359476E3,7.8836665E0,1.4306989E2,3.9864352E2,5.803201E1,1.5454269E3,6.611324E1,7.515107E1,1.5290282E2,2.0471264E1,3.4954346E1,1.3012715E3,5.820448E1,2.3052907E0,5.5783763E0,1.3869559E2,4.3742986E0,2.9985052E2,9.8793E1,5.275484E1,5.277169E0,1.5313043E3,1.4122587E1,5.750498E1,8.608266E0,6.3546177E1,1.160489E1,1.3514961E2,1.7753214E1,3.6028519E0,1.6868412E1,1.027606E3,2.7366556E2,1.798411E0,2.5758877E0,2.471648E2,5.2685726E1,1.8582247E1,8.0210754E1,4.175678E1,1.0998063E1,1.8379604E0,3.4392087E0,1.0762943E3,4.5501007E2,5.5538784E1,1.9661947E0,6.987356E0,1.6209099E0,1.9780382E1,4.3765793E1,2.3621115E1,1.1152849E2,1.05563965E1,7.1968174E0],"tree_param":{"num_deleted":"0","num_feature":"26","num_nodes":"69","size_leaf_vector":"1"}},{"base_weights":[1.2924542E-3,-7.04388E-2,5.386055E-1,-1.4822823E-1,3.2649016E-1,5.659499E-3,3.1868786E-1,1.0062247E-1,-2.5322872E-1,2.4434537E-1,8.9517635E-1,-3.0912366E-2,3.932667E-1,-7.923899E-3,9.5304984E-1,-1.0628961E0,-2.2472776E-1,1.1322873E-1,7.2710955E-1,9.982537E-1,-1.703963E-1,5.708799E-2,-5.57118E-1,-6.8847515E-2,1.2962816E0,1.1148295E-1,1.6798743E0,-1.1629604E0,2.128728E-1,-1.9642526E-1,-3.213036E-1,5.322161E-1,-1.1307945E-1,8.5731363E-1,-4.3681085E-1,3.2732973E-1,5.2810304E-2,3.0634668E-1,-3.5606548E-1,-7.64267E-2,3.849992E-1,-7.315943E-1,7.4148405E-1,1.6671675E-1,-4.844063E-2,4.1869092E-1,-2.1047045E-1,5.6461173E-1,-9.300515E-2,4.2518798E-1,8.3909315E-1,-3.5565788E-1,-1.3214739E-1,-1.7922464E-1,5.124862E-1,-4.3656413E-2,-1.8165028E-1,-1.5925762E-1,3.3988E-1,8.8730454E-2,-1.3562512E-1,1.3842805E-1,3.2865533E-1,-3.3958924E-1,3.246728E-1,-3.2335135E-1,2.3369215E-1,2.082768E-2,-1.614801E-1,4.3494663E-1,4.3957066E-2,-2.5712624E-1,2.4848737E-1,3.9102516E-1,-4.272142E-2],"categories":[],"categories_nodes":[],"categories_segments":[],"categories_sizes":[],"default_left":[0,0,0,0,0,0,0,0,0,0,0,0,0,0,0,0,0,0,0,0,0,0,0,0,0,0,0,0,0,0,0,0,0,0,0,0,0,0,0,0,0,0,0,0,0,0,0,0,0,0,0,0,0,0,0,0,0,0,0,0,0,0,0,0,0,0,0,0,0,0,0,0,0,0,0],"id":7,"left_children":[1,3,5,7,9,11,-1,13,15,17,19,21,-1,23,25,27,29,31,33,35,37,39,41,43,45,47,49,51,53,55,-1,57,59,61,63,-1,65,-1,-1,67,69,71,73,-1,-1,-1,-1,-1,-1,-1,-1,-1,-1,-1,-1,-1,-1,-1,-1,-1,-1,-1,-1,-1,-1,-1,-1,-1,-1,-1,-1,-1,-1,-1,-1],"loss_changes":[1.5202678E2,1.0749636E2,1.2965186E2,7.607114E1,2.643388E1,1.1079212E1,0E0,7.998126E1,4.6998856E1,3.1560907E1,8.038284E0,1.0493551E1,0E0,6.1086956E1,5.953457E1,9.099243E0,4.718299E1,3.744943E1,1.652769E1,5.6887207E0,9.899442E0,8.543185E0,7.8976307E0,4.257201E1,7.789711E0,3.5150196E1,1.1382599E1,5.285263E-1,8.155465E0,3.9807213E1,0E0,8.90256E1,3.5733814E1,8.566536E0,1.3248953E1,0E0,6.5085773E0,0E0,0E0,9.402411E0,1.4118059E1,6.410448E0,2.342022E0,0E0,0E0,0E0,0E0,0E0,0E0,0E0,0E0,0E0,0E0,0E0,0E0,0E0,0E0,0E0,0E0,0E0,0E0,0E0,0E0,0E0,0E0,0E0,0E0,0E0,0E0,0E0,0E0,0E0,0E0,0E0,0E0],"parents":[2147483647,0,0,1,1,2,2,3,3,4,4,5,5,7,7,8,8,9,9,10,10,11,11,13,13,14,14,15,15,16,16,17,17,18,18,19,19,20,20,21,21,22,22,23,23,24,24,25,25,26,26,27,27,28,28,29,29,31,31,32,32,33,33,34,34,36,36,39,39,40,40,41,41,42,42],"right_children":[2,4,6,8,10,12,-1,14,16,18,20,22,-1,24,26,28,30,32,34,36,38,40,42,44,46,48,50,52,54,56,-1,58,60,62,64,-1,66,-1,-1,68,70,72,74,-1,-1,-1,-1,-1,-1,-1,-1,-1,-1,-1,-1,-1,-1,-1,-1,-1,-1,-1,-1,-1,-1,-1,-1,-1,-1,-1,-1,-1,-1,-1,-1],"split_conditions":[3.7349397E-1,5.533708E-1,1E0,6.0033356E-3,1E0,1E0,3.1868786E-1,1E0,6.137425E-3,1E0,1E0,2.857143E-1,3.932667E-1,5.837225E-3,1E0,1E0,1E0,2.4390243E-2,1E0,1E0,1E0,4.939759E-1,2.2580644E-1,2.6684457E-3,2.8695652E-1,3.2258064E-2,5.1701134E-3,1E0,1E0,1E0,-3.213036E-1,1E0,1E0,7.490327E-3,3.3913043E-1,3.2732973E-1,7.258064E-2,3.0634668E-1,-3.5606548E-1,1E0,3.6811593E-1,8.5507244E-1,3.2520324E-2,1.6671675E-1,-4.844063E-2,4.1869092E-1,-2.1047045E-1,5.6461173E-1,-9.300515E-2,4.2518798E-1,8.3909315E-1,-3.5565788E-1,-1.3214739E-1,-1.7922464E-1,5.124862E-1,-4.3656413E-2,-1.8165028E-1,-1.5925762E-1,3.3988E-1,8.8730454E-2,-1.3562512E-1,1.3842805E-1,3.2865533E-1,-3.3958924E-1,3.246728E-1,-3.2335135E-1,2.3369215E-1,2.082768E-2,-1.614801E-1,4.3494663E-1,4.3957066E-2,-2.5712624E-1,2.4848737E-1,3.9102516E-1,-4.272142E-2],"split_indices":[5,4,10,1,11,8,0,13,1,14,9,6,0,1,10,13,9,2,19,19,20,5,0,1,3,0,1,20,10,16,0,10,20,1,3,0,0,0,0,12,3,3,2,0,0,0,0,0,0,0,0,0,0,0,0,0,0,0,0,0,0,0,0,0,0,0,0,0,0,0,0,0,0,0,0],"split_type":[0,0,0,0,0,0,0,0,0,0,0,0,0,0,0,0,0,0,0,0,0,0,0,0,0,0,0,0,0,0,0,0,0,0,0,0,0,0,0,0,0,0,0,0,0,0,0,0,0,0,0,0,0,0,0,0,0,0,0,0,0,0,0,0,0,0,0,0,0,0,0,0,0,0,0],"sum_hessian":[3.9424458E3,3.478884E3,4.635619E2,2.9093428E3,5.6954126E2,2.3025095E2,2.3331094E2,8.6331995E2,2.0460228E3,4.9890567E2,7.063557E1,2.2492499E2,5.325967E0,7.6668286E2,9.663713E1,6.833858E1,1.9776842E3,3.9331705E2,1.05588646E2,6.446297E1,6.1726017E0,1.9346263E2,3.1462347E1,7.333719E2,3.331094E1,4.5318115E1,5.1319016E1,6.345031E1,4.8882637E0,1.9148766E3,6.2807602E1,1.3746408E2,2.5585295E2,9.520212E1,1.0386531E1,5.8558308E1,5.9046597E0,2.8394916E0,3.33311E0,1.3802876E2,5.5433865E1,2.8120754E1,3.3415918E0,9.406517E1,6.393067E2,3.201999E1,1.2909517E0,8.047718E0,3.7270397E1,4.3388927E1,7.9300866E0,6.0906982E1,2.5433285E0,3.5598602E0,1.3284035E0,1.7041715E3,2.1070515E2,4.9673813E1,8.779027E1,1.1603699E2,1.3981596E2,3.6867218E1,5.8334896E1,7.300486E0,3.0860453E0,2.1198027E0,3.7848573E0,1.0554623E2,3.2482544E1,9.213759E0,4.6220104E1,2.6443884E1,1.6768711E0,1.7526829E0,1.588909E0],"tree_param":{"num_deleted":"0","num_feature":"26","num_nodes":"75","size_leaf_vector":"1"}},{"base_weights":[4.6513784E-3,-7.793489E-2,3.380747E-1,-4.338132E-1,-4.2833635E-3,3.2131925E-2,6.2838393E-1,-2.5787747E-1,-5.6785953E-1,2.5142903E-2,-7.6600593E-1,1.1022464E0,-1.839063E-2,2.6672858E-1,3.127998E-1,-3.4691882E-1,4.8664007E-1,-4.9995372E-1,-3.1253248E-1,2.2371535E-1,-8.018817E-2,3.8382676E-1,-9.09242E-1,1.1842208E0,3.942468E-3,-1.4783567E-1,3.6945656E-1,1.4088406E-1,1.1958246E0,-3.9858562E-1,1.1642293E0,-5.9854247E-2,1.98556E0,-6.6950977E-1,-1.0318334E-1,1.4818412E-1,1.5295117E0,-1.824754E-1,8.5597545E-2,-3.536406E-1,3.159538E-1,-1.0634184E0,3.562041E-1,9.796581E-1,5.2206147E-1,-5.977757E-2,-7.5696516E-1,6.09399E-1,4.36203E-2,-1.720617E-2,1.0101762E0,1.393303E0,3.0497903E-1,-1.8171194E-1,-1.0817248E-2,-2.5433177E-1,7.550743E-1,4.3242756E-1,-1.3523759E-1,3.2229993E-1,8.6450034E-1,-5.371636E-3,-2.1403605E-1,4.0668666E-2,-3.1962013E-1,1.6453288E-2,3.021222E-1,7.735582E-1,3.257678E-1,-1.1177432E-1,-1.2319346E-2,-9.245794E-3,2.0086296E-1,-3.311778E-1,2.6788944E-1,2.2019319E-1,-5.4009836E-2,3.199551E-1,1.0950049E-1,1.3076928E-3,-2.37186E-1,-3.0536795E-1,-4.4217274E-2,1.2641555E-2,2.4331035E-1,-3.7223983E-1,6.910345E-2,3.1641513E-1,-3.466334E-2,4.073903E-1,3.025356E-2,5.816634E-1,2.4219494E-1,-9.5671915E-2,3.399361E-1],"categories":[],"categories_nodes":[],"categories_segments":[],"categories_sizes":[],"default_left":[0,0,0,0,0,0,0,0,0,0,0,0,0,0,0,0,0,0,0,0,0,0,0,0,0,0,0,0,0,0,0,0,0,0,0,0,0,0,0,0,0,0,0,0,0,0,0,0,0,0,0,0,0,0,0,0,0,0,0,0,0,0,0,0,0,0,0,0,0,0,0,0,0,0,0,0,0,0,0,0,0,0,0,0,0,0,0,0,0,0,0,0,0,0,0],"id":8,"left_children":[1,3,5,7,9,11,13,15,17,19,21,23,25,27,-1,29,31,33,-1,35,37,39,41,43,-1,45,47,49,51,53,55,57,59,61,63,65,67,69,71,-1,-1,73,75,77,-1,79,81,83,85,87,89,91,93,-1,-1,-1,-1,-1,-1,-1,-1,-1,-1,-1,-1,-1,-1,-1,-1,-1,-1,-1,-1,-1,-1,-1,-1,-1,-1,-1,-1,-1,-1,-1,-1,-1,-1,-1,-1,-1,-1,-1,-1,-1,-1],"loss_changes":[1.0263746E2,7.830226E1,6.57011E1,1.1934204E1,5.5522545E1,1.9555573E1,5.659993E1,1.4975008E1,8.808746E0,4.990376E1,1.5523003E1,1.4402637E0,1.7426712E1,2.3686985E1,0E0,1.6084827E1,2.0002981E1,1.7119198E1,0E0,8.133069E1,2.6455444E1,1.2651646E1,1.64208E1,1.8699646E-2,0E0,1.3908911E1,6.7653484E0,2.486744E1,3.833332E0,1.4560204E1,2.0829592E1,1.16597185E1,2.2238522E0,5.1074677E0,1.798855E1,6.2701317E1,1.8191895E1,2.5914894E1,4.0510223E1,0E0,0E0,6.8140717E0,2.0928507E0,3.2431412E-1,0E0,1.0708372E1,5.062601E0,5.6795425E0,9.38013E0,1.6353365E1,8.668102E0,4.6793823E0,3.292048E0,0E0,0E0,0E0,0E0,0E0,0E0,0E0,0E0,0E0,0E0,0E0,0E0,0E0,0E0,0E0,0E0,0E0,0E0,0E0,0E0,0E0,0E0,0E0,0E0,0E0,0E0,0E0,0E0,0E0,0E0,0E0,0E0,0E0,0E0,0E0,0E0,0E0,0E0,0E0,0E0,0E0,0E0],"parents":[2147483647,0,0,1,1,2,2,3,3,4,4,5,5,6,6,7,7,8,8,9,9,10,10,11,11,12,12,13,13,15,15,16,16,17,17,19,19,20,20,21,21,22,22,23,23,25,25,26,26,27,27,28,28,29,29,30,30,31,31,32,32,33,33,34,34,35,35,36,36,37,37,38,38,41,41,42,42,43,43,45,45,46,46,47,47,48,48,49,49,50,50,51,51,52,52],"right_children":[2,4,6,8,10,12,14,16,18,20,22,24,26,28,-1,30,32,34,-1,36,38,40,42,44,-1,46,48,50,52,54,56,58,60,62,64,66,68,70,72,-1,-1,74,76,78,-1,80,82,84,86,88,90,92,94,-1,-1,-1,-1,-1,-1,-1,-1,-1,-1,-1,-1,-1,-1,-1,-1,-1,-1,-1,-1,-1,-1,-1,-1,-1,-1,-1,-1,-1,-1,-1,-1,-1,-1,-1,-1,-1,-1,-1,-1,-1,-1],"split_conditions":[3.1325302E-1,1.3932584E-1,1E0,7.6717813E-3,1E0,1.6521738E-1,3.7349397E-1,1E0,1.3033707E-1,6.754503E-3,2.6350901E-3,5.702247E-1,5.511236E-1,1E0,3.127998E-1,7.5050034E-3,1E0,1.16292134E-1,-3.1253248E-1,6.671114E-3,4.707865E-1,1.8072289E-1,1E0,2.93529E-3,3.942468E-3,1E0,1E0,5.652174E-1,1E0,1E0,1.6521738E-1,3.2258064E-2,4.7531687E-3,6.666667E-2,9.677419E-2,1E0,3.8988763E-1,3.2520324E-2,1E0,-3.536406E-1,3.159538E-1,7.8932583E-1,1.9057971E-1,1.4492753E-1,5.2206147E-1,1E0,4.698795E-1,8.00467E-3,1E0,2.6684457E-3,1.3342228E-2,4.3876404E-1,2.5E-1,-1.8171194E-1,-1.0817248E-2,-2.5433177E-1,7.550743E-1,4.3242756E-1,-1.3523759E-1,3.2229993E-1,8.6450034E-1,-5.371636E-3,-2.1403605E-1,4.0668666E-2,-3.1962013E-1,1.6453288E-2,3.021222E-1,7.735582E-1,3.257678E-1,-1.1177432E-1,-1.2319346E-2,-9.245794E-3,2.0086296E-1,-3.311778E-1,2.6788944E-1,2.2019319E-1,-5.4009836E-2,3.199551E-1,1.0950049E-1,1.3076928E-3,-2.37186E-1,-3.0536795E-1,-4.4217274E-2,1.2641555E-2,2.4331035E-1,-3.7223983E-1,6.910345E-2,3.1641513E-1,-3.466334E-2,4.073903E-1,3.025356E-2,5.816634E-1,2.4219494E-1,-9.5671915E-2,3.399361E-1],"split_indices":[5,4,10,1,9,3,5,13,4,1,1,4,4,13,0,1,10,4,0,1,4,5,21,1,0,16,20,3,18,7,3,0,1,3,0,13,4,2,14,0,0,4,3,3,0,9,5,1,7,1,1,4,6,0,0,0,0,0,0,0,0,0,0,0,0,0,0,0,0,0,0,0,0,0,0,0,0,0,0,0,0,0,0,0,0,0,0,0,0,0,0,0,0,0,0],"split_type":[0,0,0,0,0,0,0,0,0,0,0,0,0,0,0,0,0,0,0,0,0,0,0,0,0,0,0,0,0,0,0,0,0,0,0,0,0,0,0,0,0,0,0,0,0,0,0,0,0,0,0,0,0,0,0,0,0,0,0,0,0,0,0,0,0,0,0,0,0,0,0,0,0,0,0,0,0,0,0,0,0,0,0,0,0,0,0,0,0,0,0,0,0,0,0],"sum_hessian":[3.7254094E3,2.9864548E3,7.389545E2,5.112492E2,2.4752056E3,3.6033044E2,3.7862405E2,2.2234511E2,2.889041E2,2.384073E3,9.113263E1,1.5306554E1,3.450239E2,2.0302946E2,1.755946E2,1.9907104E2,2.3274075E1,2.5449348E2,3.4410614E1,8.2591534E2,1.5581576E3,9.908898E0,8.122373E1,1.415389E1,1.1526638E0,2.5915054E2,8.587336E1,1.7982422E2,2.3205254E1,1.9320163E2,5.86941E0,1.7759258E1,5.5148163E0,1.7781747E2,7.667601E1,7.818067E2,4.4108593E1,9.6355707E2,5.946006E2,2.7433462E0,7.165552E0,7.254484E1,8.678894E0,1.2366078E1,1.7878118E0,2.2737802E2,3.1772509E1,4.8953926E1,3.691943E1,1.5298283E2,2.6841385E1,1.8532936E1,4.672317E0,1.2252782E2,7.067381E1,2.5097065E0,3.3597038E0,3.1139538E0,1.4645305E1,3.8245873E0,1.6902287E0,1.1323169E1,1.6649431E2,6.212152E1,1.4554494E1,7.061317E2,7.567498E1,1.1679019E1,3.2429573E1,4.1031534E2,5.5324176E2,4.9655362E2,9.804694E1,7.150014E1,1.0447046E0,4.8754416E0,3.8034525E0,1.0190838E1,2.1752405E0,2.0994768E2,1.7430346E1,2.1779823E1,9.992686E0,1.3154729E1,3.57992E1,3.9694877E0,3.2949944E1,1.2038071E1,1.4094476E2,1.9058659E1,7.782727E0,8.401807E0,1.0131129E1,3.015491E0,1.6568259E0],"tree_param":{"num_deleted":"0","num_feature":"26","num_nodes":"95","size_leaf_vector":"1"}},{"base_weights":[3.6966414E-3,2.5470948E-1,-7.2680555E-2,1.8894531E-1,8.9997774E-1,-2.8946233E-1,9.929214E-3,6.430976E-1,9.5393024E-2,5.566812E-1,1.2297461E0,-2.3873918E-1,-9.415376E-1,-2.5450399E-3,1.3911335E0,-1.8352056E-1,3.3190557E-1,1.5189089E-1,-8.5824853E-1,8.0336547E-1,-4.8676988E-1,1.4266025E0,4.509818E-1,-1.7023574E-1,-6.724729E-1,-3.0703515E-1,-1.8847045E-1,1.938426E-2,-7.951488E-1,1.2760961E-1,4.325299E-1,-3.777364E-1,5.208305E-1,1.3259956E-2,5.194704E-1,-3.3031267E-1,5.0833213E-1,9.9761224E-1,2.3312052E-1,-8.495276E-1,1.6311273E-1,1.5502096E0,1.6207823E-1,1.117392E0,-3.4285745E-1,-8.9898825E-2,-5.1427644E-1,-7.5296485E-1,4.2330235E-1,-2.5879678E-1,2.1710485E-1,9.027489E-2,-1.7635038E-1,-1.0165056E0,1.8178234E-1,-3.3897355E-2,-3.4908786E-1,2.6472816E-1,-1.3110842E-1,-1.852263E-2,2.1211804E-1,-8.391102E-3,1.8592079E-1,-7.393096E-2,2.2273812E-1,2.9830197E-2,3.3996373E-1,1.6748987E-1,-2.662312E-1,-3.211176E-1,-5.324016E-3,5.3512496E-1,2.1427655E-1,-1.3687818E-1,2.4402921E-1,-8.458054E-2,4.880776E-1,-3.2205006E-1,1.7097637E-1,-1.0140275E-1,4.8078818E-4,-1.9085263E-1,2.5258422E-2,-2.3981349E-1,1.3659878E-1,4.9289873E-1,-2.5493905E-1,1.5923096E-2,2.6238042E-1,-3.3211854E-1,-3.9321125E-2,-3.169611E-1,8.8904664E-2,-6.777651E-2,2.2370307E-1],"categories":[],"categories_nodes":[],"categories_segments":[],"categories_sizes":[],"default_left":[0,0,0,0,0,0,0,0,0,0,0,0,0,0,0,0,0,0,0,0,0,0,0,0,0,0,0,0,0,0,0,0,0,0,0,0,0,0,0,0,0,0,0,0,0,0,0,0,0,0,0,0,0,0,0,0,0,0,0,0,0,0,0,0,0,0,0,0,0,0,0,0,0,0,0,0,0,0,0,0,0,0,0,0,0,0,0,0,0,0,0,0,0,0,0],"id":9,"left_children":[1,3,5,7,9,11,13,15,17,19,21,23,25,27,29,31,-1,33,35,37,39,41,43,45,47,-1,49,51,53,-1,-1,55,57,59,61,-1,63,65,67,69,-1,71,73,75,77,79,81,83,85,-1,-1,87,89,91,93,-1,-1,-1,-1,-1,-1,-1,-1,-1,-1,-1,-1,-1,-1,-1,-1,-1,-1,-1,-1,-1,-1,-1,-1,-1,-1,-1,-1,-1,-1,-1,-1,-1,-1,-1,-1,-1,-1,-1,-1],"loss_changes":[6.835804E1,3.5128456E1,4.8960533E1,3.2064957E1,7.9950714E0,2.472583E1,3.412552E1,4.9594444E1,3.3975E1,1.0530526E1,5.2248726E0,2.0721336E1,3.1446E0,3.414718E1,2.536087E-1,6.6509185E0,0E0,3.0255959E1,1.226683E1,3.3382492E0,3.510223E0,4.4523125E0,5.242638E0,1.6729183E1,8.725147E0,0E0,4.6421156E0,2.6543869E1,1.1622681E1,0E0,0E0,7.683893E0,4.063301E0,2.2537216E1,8.943115E0,0E0,1.2445114E0,2.778799E0,3.9555738E0,1.1607351E0,0E0,4.0549316E0,1.9001454E0,4.186651E0,3.9179332E0,1.1198706E1,8.420233E0,5.3634605E0,1.2517557E1,0E0,0E0,4.092052E1,2.1290964E1,2.5873375E0,2.609771E0,0E0,0E0,0E0,0E0,0E0,0E0,0E0,0E0,0E0,0E0,0E0,0E0,0E0,0E0,0E0,0E0,0E0,0E0,0E0,0E0,0E0,0E0,0E0,0E0,0E0,0E0,0E0,0E0,0E0,0E0,0E0,0E0,0E0,0E0,0E0,0E0,0E0,0E0,0E0,0E0],"parents":[2147483647,0,0,1,1,2,2,3,3,4,4,5,5,6,6,7,7,8,8,9,9,10,10,11,11,12,12,13,13,14,14,15,15,17,17,18,18,19,19,20,20,21,21,22,22,23,23,24,24,26,26,27,27,28,28,31,31,32,32,33,33,34,34,36,36,37,37,38,38,39,39,41,41,42,42,43,43,44,44,45,45,46,46,47,47,48,48,51,51,52,52,53,53,54,54],"right_children":[2,4,6,8,10,12,14,16,18,20,22,24,26,28,30,32,-1,34,36,38,40,42,44,46,48,-1,50,52,54,-1,-1,56,58,60,62,-1,64,66,68,70,-1,72,74,76,78,80,82,84,86,-1,-1,88,90,92,94,-1,-1,-1,-1,-1,-1,-1,-1,-1,-1,-1,-1,-1,-1,-1,-1,-1,-1,-1,-1,-1,-1,-1,-1,-1,-1,-1,-1,-1,-1,-1,-1,-1,-1,-1,-1,-1,-1,-1,-1],"split_conditions":[5.1701134E-3,5.0026686E-3,2.6179776E-1,2.6684457E-3,1.7391305E-1,1E0,1E0,1.9277108E-1,1E0,1.4492753E-1,1.7857143E-1,1.5010007E-2,3.7349397E-1,1E0,1.3405797E-1,1E0,3.3190557E-1,1.9057971E-1,6.123595E-1,1E0,1E0,5.1367576E-3,3.2520324E-2,9.677419E-2,3.6024015E-2,-3.0703515E-1,1E0,1.2675117E-2,6.612359E-1,1.2760961E-1,4.325299E-1,2.5E-1,1.6867469E-1,1E0,1.2584269E-1,-3.3031267E-1,3.5714287E-2,1.1741573E-1,1E0,5.567416E-1,1.6311273E-1,1E0,5.691057E-2,2.5E-1,1E0,9.662921E-2,5E-1,1.300813E-1,7.258064E-2,-2.5879678E-1,2.1710485E-1,1.2008006E-2,1.2675784E-2,5.421687E-1,1E0,-3.3897355E-2,-3.4908786E-1,2.6472816E-1,-1.3110842E-1,-1.852263E-2,2.1211804E-1,-8.391102E-3,1.8592079E-1,-7.393096E-2,2.2273812E-1,2.9830197E-2,3.3996373E-1,1.6748987E-1,-2.662312E-1,-3.211176E-1,-5.324016E-3,5.3512496E-1,2.1427655E-1,-1.3687818E-1,2.4402921E-1,-8.458054E-2,4.880776E-1,-3.2205006E-1,1.7097637E-1,-1.0140275E-1,4.8078818E-4,-1.9085263E-1,2.5258422E-2,-2.3981349E-1,1.3659878E-1,4.9289873E-1,-2.5493905E-1,1.5923096E-2,2.6238042E-1,-3.3211854E-1,-3.9321125E-2,-3.169611E-1,8.8904664E-2,-6.777651E-2,2.2370307E-1],"split_indices":[1,1,4,1,3,16,23,5,9,3,6,1,5,9,3,15,0,3,4,18,13,1,2,0,1,0,10,1,4,0,0,6,5,13,4,0,6,4,11,4,0,18,2,6,20,4,6,2,0,0,0,1,1,5,14,0,0,0,0,0,0,0,0,0,0,0,0,0,0,0,0,0,0,0,0,0,0,0,0,0,0,0,0,0,0,0,0,0,0,0,0,0,0,0,0],"split_type":[0,0,0,0,0,0,0,0,0,0,0,0,0,0,0,0,0,0,0,0,0,0,0,0,0,0,0,0,0,0,0,0,0,0,0,0,0,0,0,0,0,0,0,0,0,0,0,0,0,0,0,0,0,0,0,0,0,0,0,0,0,0,0,0,0,0,0,0,0,0,0,0,0,0,0,0,0,0,0,0,0,0,0,0,0,0,0,0,0,0,0,0,0,0,0],"sum_hessian":[3.5636128E3,8.308145E2,2.732798E3,7.5514484E2,7.566972E1,7.5335785E2,1.9794403E3,1.2798136E2,6.2716345E2,3.839144E1,3.7278282E1,7.0025323E2,5.3104633E1,1.9627124E3,1.6727945E1,4.6181034E1,8.180032E1,5.9287946E2,3.4284023E1,3.1236782E1,7.1546583E0,2.9092411E1,8.185869E0,6.0594366E2,9.430961E1,4.7571163E1,5.533471E0,1.9108204E3,5.1891926E1,1.3016301E0,1.5426315E1,3.6562973E1,9.618063E0,4.3126562E2,1.6161378E2,2.9276857E1,5.0071664E0,2.2740925E1,8.495856E0,5.4216747E0,1.7329835E0,2.6296051E1,2.7963614E0,4.2285323E0,3.9573371E0,4.9225787E2,1.13685776E2,8.814744E1,6.162167E0,3.2129776E0,2.3204932E0,1.4031649E3,5.0765558E2,4.227303E1,9.6188965E0,2.820518E1,8.357794E0,7.039402E0,2.5786612E0,3.9001477E2,4.125086E1,2.512958E1,1.364842E2,1.1730351E0,3.834131E0,3.2102695E0,1.9530657E1,6.973853E0,1.522003E0,4.05743E0,1.3642447E0,1.9667706E1,6.6283436E0,1.5881882E0,1.2081733E0,1.2479573E0,2.9805748E0,2.100162E0,1.857175E0,1.3190297E2,3.603549E2,9.439586E1,1.9289917E1,8.521265E1,2.9347935E0,2.9987063E0,3.1634607E0,1.3406501E3,6.2514763E1,2.2464191E1,4.851914E2,4.1211643E1,1.0613836E0,5.930449E0,3.688447E0],"tree_param":{"num_deleted":"0","num_feature":"26","num_nodes":"95","size_leaf_vector":"1"}},{"base_weights":[1.7189275E-3,-3.5837945E-2,3.530859E-1,-1.3644354E-1,9.003156E-2,-3.0235637E-2,3.0733043E-1,-8.244481E-2,-8.290562E-1,2.3208588E-1,-6.3269384E-2,-5.8864396E-2,3.3333623E-1,-1.295498E-1,2.2751221E-1,2.93576E-1,-9.418413E-1,1.3514501E-1,9.790877E-1,-4.126139E-2,-8.4256035E-1,2.709594E-1,-9.2033446E-2,-2.6945168E-1,-1.673536E-2,3.0101953E0,-2.8375812E-2,9.621633E-1,-4.535992E-1,3.196755E-2,-9.9713784E-1,-1.7273838E-2,8.035408E-1,3.2827303E-1,-3.4784025E-1,-3.4706149E-1,1.2109342E-2,1.7056888E-1,-9.654976E-1,-2.1809904E-2,-5.511004E-1,1.051589E-1,-9.380044E-2,1.9934054E-2,-1.2719607E-1,4.3001792E-1,1.5509177E0,-1.0662826E-1,1.3499418E-1,5.9208643E-1,-1.1414554E-1,-2.8136572E-1,1.7256227E-1,-2.6989716E-1,2.4296795E-1,-3.1419337E-1,-1.06239155E-1,1.4269489E-1,-8.95354E-2,1.3480197E-1,3.2140642E-1,2.5408232E-1,-2.9864782E-1,-1.3568431E-1,4.073479E-1,-7.586039E-4,3.1767446E-1,-3.6708497E-2,-3.2940674E-1,2.441726E-2,-9.5008634E-2,-2.1804488E-1,1.725292E-1],"categories":[],"categories_nodes":[],"categories_segments":[],"categories_sizes":[],"default_left":[0,0,0,0,0,0,0,0,0,0,0,0,0,0,0,0,0,0,0,0,0,0,0,0,0,0,0,0,0,0,0,0,0,0,0,0,0,0,0,0,0,0,0,0,0,0,0,0,0,0,0,0,0,0,0,0,0,0,0,0,0,0,0,0,0,0,0,0,0,0,0,0,0],"id":10,"left_children":[1,3,5,7,9,11,-1,13,15,17,19,21,-1,23,25,27,29,31,33,35,37,-1,39,41,43,45,47,49,51,53,55,57,59,-1,61,63,65,-1,67,69,71,-1,-1,-1,-1,-1,-1,-1,-1,-1,-1,-1,-1,-1,-1,-1,-1,-1,-1,-1,-1,-1,-1,-1,-1,-1,-1,-1,-1,-1,-1,-1,-1],"loss_changes":[4.572179E1,3.965083E1,8.613205E1,6.5011765E1,3.0309208E1,7.0562334E0,0E0,2.3614544E1,1.6197533E1,5.217017E1,1.1453766E1,6.773548E0,0E0,2.213725E1,1.5208574E2,6.5518446E0,6.197548E0,6.526114E1,1.3033272E1,1.0653737E1,3.7316914E0,0E0,6.5508785E0,1.6887474E1,2.6373472E1,5.383513E1,3.0898844E1,9.959824E0,3.7584577E0,5.8897266E0,3.125618E0,7.2561035E1,1.0802086E1,0E0,6.5467954E0,1.801355E1,8.530331E0,0E0,1.7927437E0,5.430938E0,5.754879E0,0E0,0E0,0E0,0E0,0E0,0E0,0E0,0E0,0E0,0E0,0E0,0E0,0E0,0E0,0E0,0E0,0E0,0E0,0E0,0E0,0E0,0E0,0E0,0E0,0E0,0E0,0E0,0E0,0E0,0E0,0E0,0E0],"parents":[2147483647,0,0,1,1,2,2,3,3,4,4,5,5,7,7,8,8,9,9,10,10,11,11,13,13,14,14,15,15,16,16,17,17,18,18,19,19,20,20,22,22,23,23,24,24,25,25,26,26,27,27,28,28,29,29,30,30,31,31,32,32,34,34,35,35,36,36,38,38,39,39,40,40],"right_children":[2,4,6,8,10,12,-1,14,16,18,20,22,-1,24,26,28,30,32,34,36,38,-1,40,42,44,46,48,50,52,54,56,58,60,-1,62,64,66,-1,68,70,72,-1,-1,-1,-1,-1,-1,-1,-1,-1,-1,-1,-1,-1,-1,-1,-1,-1,-1,-1,-1,-1,-1,-1,-1,-1,-1,-1,-1,-1,-1,-1,-1],"split_conditions":[3.7349397E-1,4.1460675E-1,1E0,1E0,1E0,1E0,3.0733043E-1,1E0,1E0,1E0,2.4349567E-2,2.6684457E-3,3.3333623E-1,3.2520324E-2,3.2258064E-2,1.4457831E-1,2.6350901E-3,1E0,1E0,2.4193548E-2,1.0724638E-1,2.709594E-1,2.857143E-1,6.0240965E-2,1.3342228E-2,6.137425E-3,1E0,1.0423616E-2,9.677419E-2,1.8072289E-1,1E0,2.4390243E-2,7.490327E-3,3.2827303E-1,1E0,1E0,6.884058E-1,1.7056888E-1,4.032258E-2,9.33956E-3,2.2580644E-1,1.051589E-1,-9.380044E-2,1.9934054E-2,-1.2719607E-1,4.3001792E-1,1.5509177E0,-1.0662826E-1,1.3499418E-1,5.9208643E-1,-1.1414554E-1,-2.8136572E-1,1.7256227E-1,-2.6989716E-1,2.4296795E-1,-3.1419337E-1,-1.06239155E-1,1.4269489E-1,-8.95354E-2,1.3480197E-1,3.2140642E-1,2.5408232E-1,-2.9864782E-1,-1.3568431E-1,4.073479E-1,-7.586039E-4,3.1767446E-1,-3.6708497E-2,-3.2940674E-1,2.441726E-2,-9.5008634E-2,-2.1804488E-1,1.725292E-1],"split_indices":[5,4,10,16,19,8,0,13,24,11,1,1,0,2,0,5,1,14,9,0,3,0,6,5,1,1,10,1,0,5,19,2,1,0,20,13,3,0,0,1,0,0,0,0,0,0,0,0,0,0,0,0,0,0,0,0,0,0,0,0,0,0,0,0,0,0,0,0,0,0,0,0,0],"split_type":[0,0,0,0,0,0,0,0,0,0,0,0,0,0,0,0,0,0,0,0,0,0,0,0,0,0,0,0,0,0,0,0,0,0,0,0,0,0,0,0,0,0,0,0,0,0,0,0,0,0,0,0,0,0,0,0,0,0,0,0,0,0,0,0,0,0,0,0,0,0,0,0,0],"sum_hessian":[3.462799E3,3.1292212E3,3.3357782E2,1.7391003E3,1.3901208E3,2.1294633E2,1.20631485E2,1.6143579E3,1.24742485E2,7.212604E2,6.688605E2,2.086609E2,4.2854376E0,1.4018909E3,2.1246703E2,1.1241787E1,1.13500694E2,6.3945685E2,8.180349E1,6.51514E2,1.7346493E1,6.0800476E0,2.0258086E2,6.2519464E2,7.766962E2,1.6986095E1,1.9548093E2,5.781052E0,5.4607353E0,6.121365E0,1.0737933E2,5.21508E2,1.1794887E2,7.543253E1,6.3709607E0,9.599356E1,5.5552045E2,1.0996339E0,1.6246859E1,1.76612E2,2.5968855E1,4.027663E1,5.84918E2,6.456561E2,1.3104013E2,1.0779263E1,6.206833E0,1.1625471E2,7.922623E1,3.0291526E0,2.7518995E0,3.7730408E0,1.6876945E0,2.7143016E0,3.4070637E0,9.902383E1,8.355507E0,1.8917667E2,3.3233133E2,5.1936874E1,6.601199E1,2.1313548E0,4.239606E0,9.110557E1,4.887992E0,5.4884326E2,6.677174E0,2.468069E0,1.377879E1,1.3136302E2,4.524898E1,2.277067E1,3.1981833E0],"tree_param":{"num_deleted":"0","num_feature":"26","num_nodes":"73","size_leaf_vector":"1"}},{"base_weights":[2.2822837E-3,2.1475028E-2,-5.918209E-1,2.2682974E-1,-3.631312E-2,5.9435207E-1,-7.9860485E-1,1.712677E-1,7.832182E-1,-1.0138662E-1,1.3908613E-1,-3.134273E-1,3.0136234E-1,-1.0401943E0,2.6676001E-2,1.040786E-1,5.9845835E-1,4.7982052E-1,1.0431511E0,-1.4521879E-1,1.9151855E-1,2.6854363E-1,-1.05088875E-1,-3.1734395E-1,-3.7715085E-2,4.2957816E-1,-3.2770792E-1,-8.524348E-1,1.2771189E-1,9.4809496E-1,3.2224318E-1,7.230593E-1,-3.4484613E-1,1.2000803E0,1.5785263E-1,-2.1850498E-1,4.9147833E-2,5.4902416E-1,-2.3930568E-2,3.319847E-1,-1.7990363E-1,-3.647297E-1,2.1901055E-1,6.8015033E-1,-3.5696617E-1,2.6637048E-2,-3.1018385E-1,1.4346224E-1,2.1738594E-2,3.238864E-1,4.666903E-2,1.382689E-1,-1.8807559E-1,-6.337376E-2,2.8014302E-1,-1.8733156E-1,1.3776027E-1,4.15882E-1,1.4780675E-1,-1.4506727E-1,2.7980286E-1,-8.575852E-3,-9.644384E-2,1.03446685E-1,-2.3116993E-2,2.0547807E-1,-7.314467E-2,2.9438558E-1,8.902308E-2,-1.7710544E-1,9.588046E-2,-1.2879507E-1,1.3233426E-1,3.4925748E-2,5.32027E-1,3.6215633E-1,6.341167E-2,-2.4733041E-1,1.8860082E-1],"categories":[],"categories_nodes":[],"categories_segments":[],"categories_sizes":[],"default_left":[0,0,0,0,0,0,0,0,0,0,0,0,0,0,0,0,0,0,0,0,0,0,0,0,0,0,0,0,0,0,0,0,0,0,0,0,0,0,0,0,0,0,0,0,0,0,0,0,0,0,0,0,0,0,0,0,0,0,0,0,0,0,0,0,0,0,0,0,0,0,0,0,0,0,0,0,0,0,0],"id":11,"left_children":[1,3,5,7,9,11,13,15,17,19,21,-1,-1,23,25,27,29,31,33,35,37,39,41,-1,-1,43,-1,45,47,49,51,53,55,57,59,61,63,-1,65,67,69,71,73,75,77,-1,-1,-1,-1,-1,-1,-1,-1,-1,-1,-1,-1,-1,-1,-1,-1,-1,-1,-1,-1,-1,-1,-1,-1,-1,-1,-1,-1,-1,-1,-1,-1,-1,-1],"loss_changes":[3.776043E1,3.8076035E1,2.5894356E1,2.1648113E1,2.8597164E1,1.1778688E1,1.7708084E1,1.8362211E1,4.522644E0,2.348609E1,2.1462734E1,0E0,0E0,9.72641E-1,9.962426E0,1.2674899E1,8.0993E0,6.5161943E0,4.458153E0,2.2657764E1,8.415855E1,1.2675077E1,1.9910925E1,0E0,0E0,3.43545E0,0E0,2.403946E0,1.0487214E1,3.7821503E0,6.886827E0,5.0113707E0,2.0386775E0,3.0397377E0,3.5265584E0,2.2573921E1,1.6301529E1,0E0,3.31432E1,8.6057625E0,1.1588706E1,7.018955E0,1.660889E1,2.8651667E0,2.6237736E0,0E0,0E0,0E0,0E0,0E0,0E0,0E0,0E0,0E0,0E0,0E0,0E0,0E0,0E0,0E0,0E0,0E0,0E0,0E0,0E0,0E0,0E0,0E0,0E0,0E0,0E0,0E0,0E0,0E0,0E0,0E0,0E0,0E0,0E0],"parents":[2147483647,0,0,1,1,2,2,3,3,4,4,5,5,6,6,7,7,8,8,9,9,10,10,13,13,14,14,15,15,16,16,17,17,18,18,19,19,20,20,21,21,22,22,25,25,27,27,28,28,29,29,30,30,31,31,32,32,33,33,34,34,35,35,36,36,38,38,39,39,40,40,41,41,42,42,43,43,44,44],"right_children":[2,4,6,8,10,12,14,16,18,20,22,-1,-1,24,26,28,30,32,34,36,38,40,42,-1,-1,44,-1,46,48,50,52,54,56,58,60,62,64,-1,66,68,70,72,74,76,78,-1,-1,-1,-1,-1,-1,-1,-1,-1,-1,-1,-1,-1,-1,-1,-1,-1,-1,-1,-1,-1,-1,-1,-1,-1,-1,-1,-1,-1,-1,-1,-1,-1,-1],"split_conditions":[1E0,5.1367576E-3,2.6684457E-3,5.0026686E-3,3.9130434E-1,1.8072289E-1,5.983146E-1,1E0,1.7391305E-1,1E0,1.4342896E-2,-3.134273E-1,3.0136234E-1,1E0,1E0,3.2022472E-2,2.4390243E-2,1.3405797E-1,4.8780486E-2,4.808989E-1,3.2258064E-2,1E0,6.666667E-1,-3.1734395E-1,-3.7715085E-2,1.2008006E-2,-3.2770792E-1,2.8352235E-3,2.6684457E-3,1E0,1.1290322E-1,1.6260162E-2,1E0,1E0,1E0,1.3913043E-1,2.4390243E-2,5.4902416E-1,7.6717813E-3,2.2891566E-1,1E0,4.642857E-1,1.2195122E-1,2.3768117E-1,1E0,2.6637048E-2,-3.1018385E-1,1.4346224E-1,2.1738594E-2,3.238864E-1,4.666903E-2,1.382689E-1,-1.8807559E-1,-6.337376E-2,2.8014302E-1,-1.8733156E-1,1.3776027E-1,4.15882E-1,1.4780675E-1,-1.4506727E-1,2.7980286E-1,-8.575852E-3,-9.644384E-2,1.03446685E-1,-2.3116993E-2,2.0547807E-1,-7.314467E-2,2.9438558E-1,8.902308E-2,-1.7710544E-1,9.588046E-2,-1.2879507E-1,1.3233426E-1,3.4925748E-2,5.32027E-1,3.6215633E-1,6.341167E-2,-2.4733041E-1,1.8860082E-1],"split_indices":[9,1,1,1,3,5,4,20,3,13,1,0,0,21,20,4,2,3,2,4,0,16,3,0,0,1,0,1,1,7,0,2,13,14,20,3,2,0,1,5,10,6,2,3,14,0,0,0,0,0,0,0,0,0,0,0,0,0,0,0,0,0,0,0,0,0,0,0,0,0,0,0,0,0,0,0,0,0,0],"split_type":[0,0,0,0,0,0,0,0,0,0,0,0,0,0,0,0,0,0,0,0,0,0,0,0,0,0,0,0,0,0,0,0,0,0,0,0,0,0,0,0,0,0,0,0,0,0,0,0,0,0,0,0,0,0,0,0,0,0,0,0,0,0,0,0,0,0,0,0,0,0,0,0,0,0,0,0,0,0,0],"sum_hessian":[3.3094863E3,3.2068516E3,1.02634796E2,7.0360626E2,2.503245E3,1.4957866E1,8.767693E1,6.4091144E2,6.2694855E1,1.8261584E3,6.7708673E2,2.6843247E0,1.2273541E1,6.7621315E1,2.005561E1,5.5488245E2,8.602899E1,3.024194E1,3.2452915E1,1.588891E3,2.3726741E2,4.4242215E2,2.3466461E2,6.618934E1,1.4319822E0,1.5199308E1,4.856303E0,1.2533731E1,5.423487E2,3.689473E1,4.9134262E1,2.3448822E1,6.793116E0,2.7264421E1,5.188493E0,1.1537456E3,4.3514548E2,2.6701254E1,2.1056616E2,3.878179E2,5.460425E1,1.3021893E2,1.0444567E2,1.1629671E1,3.5696375E0,2.108897E0,1.0424835E1,7.28086E1,4.695401E2,3.1332613E1,5.5621185E0,4.332045E1,5.813814E0,4.3153887E0,1.9133434E1,5.2061534E0,1.5869628E0,2.08237E1,6.440722E0,3.0442944E0,2.1441987E0,4.060793E2,7.4766626E2,1.2965495E2,3.0549054E2,4.9351997E1,1.6121416E2,1.8583359E1,3.6923453E2,2.9874355E1,2.4729895E1,1.2098909E2,9.229851E0,9.898739E1,5.4582815E0,4.733131E0,6.8965397E0,2.5322084E0,1.037429E0],"tree_param":{"num_deleted":"0","num_feature":"26","num_nodes":"79","size_leaf_vector":"1"}},{"base_weights":[1.194107E-3,1.5748903E-2,-5.531411E-1,8.868112E-2,-9.714174E-2,5.497464E-1,-7.4421597E-1,6.2326815E-2,1.3122596E0,-6.883054E-1,-4.4368457E-2,-2.8123185E-1,2.88941E-1,-1.01108E0,2.2720499E-2,2.3821708E-2,3.9236033E-1,1.5003549E0,-4.807856E-1,-8.0023277E-1,-3.912741E-1,4.2799005E-1,-9.21778E-2,-3.1473854E-1,-3.0666628E-1,3.538458E-1,-2.9774463E-1,-1.9084057E-2,3.6672974E-1,8.977883E-1,-9.590634E-2,2.2912116E0,1.113977E0,-2.5140712E-1,8.8069744E-2,-8.918357E-1,-1.7322108E-1,-8.72883E-1,4.623809E-1,1.2228439E-1,1.1102703E0,-9.4462806E-1,-4.3911334E-2,8.675489E-2,-2.0330784E-1,5.592052E-1,-2.6542148E-1,-1.834699E-2,8.963833E-2,3.0581796E-1,-1.1809011E-2,4.3347076E-1,4.1381966E-2,3.7388268E-1,-6.982196E-2,7.6110476E-1,6.67245E-2,7.6466195E-2,5.457642E-1,-2.9454857E-1,-6.151356E-2,1.4062576E-1,-1.9001155E-1,-9.2956394E-2,-3.228728E-1,-2.266028E-1,2.587572E-1,-5.9146382E-2,3.358193E-1,1.962819E-1,6.304492E-1,-3.2500505E-1,-4.3324377E-2,1.4551052E-1,-2.9604873E-2,2.1583053E-1,-1.3471666E-1,-2.2456606E-1,1.15100086E-1],"categories":[],"categories_nodes":[],"categories_segments":[],"categories_sizes":[],"default_left":[0,0,0,0,0,0,0,0,0,0,0,0,0,0,0,0,0,0,0,0,0,0,0,0,0,0,0,0,0,0,0,0,0,0,0,0,0,0,0,0,0,0,0,0,0,0,0,0,0,0,0,0,0,0,0,0,0,0,0,0,0,0,0,0,0,0,0,0,0,0,0,0,0,0,0,0,0,0,0],"id":12,"left_children":[1,3,5,7,9,11,13,15,17,19,21,-1,-1,23,25,27,29,31,33,35,37,39,41,-1,43,45,-1,47,49,51,53,55,57,-1,-1,59,61,63,65,67,69,71,73,-1,-1,75,77,-1,-1,-1,-1,-1,-1,-1,-1,-1,-1,-1,-1,-1,-1,-1,-1,-1,-1,-1,-1,-1,-1,-1,-1,-1,-1,-1,-1,-1,-1,-1,-1],"loss_changes":[2.597338E1,2.58348E1,1.7765654E1,6.1385513E1,3.8392647E1,8.733609E0,1.4477619E1,2.3716772E1,1.4259392E1,3.0402756E0,2.5597685E1,0E0,0E0,1.0831032E0,6.8084874E0,2.4621737E1,4.8209705E1,8.623062E0,1.5097642E0,3.998352E0,1.2557655E1,2.1597296E1,4.2277645E1,0E0,1.1022019E0,2.0842202E0,0E0,1.991765E1,4.936547E1,3.9674522E1,1.8671942E1,5.0584755E0,1.5600937E1,0E0,0E0,3.6829453E0,3.3861458E0,1.8701563E0,6.165632E0,2.3497818E1,1.3141899E1,5.956436E0,2.8279589E1,0E0,0E0,2.2217977E0,1.6886125E0,0E0,0E0,0E0,0E0,0E0,0E0,0E0,0E0,0E0,0E0,0E0,0E0,0E0,0E0,0E0,0E0,0E0,0E0,0E0,0E0,0E0,0E0,0E0,0E0,0E0,0E0,0E0,0E0,0E0,0E0,0E0,0E0],"parents":[2147483647,0,0,1,1,2,2,3,3,4,4,5,5,6,6,7,7,8,8,9,9,10,10,13,13,14,14,15,15,16,16,17,17,18,18,19,19,20,20,21,21,22,22,24,24,25,25,27,27,28,28,29,29,30,30,31,31,32,32,35,35,36,36,37,37,38,38,39,39,40,40,41,41,42,42,45,45,46,46],"right_children":[2,4,6,8,10,12,14,16,18,20,22,-1,-1,24,26,28,30,32,34,36,38,40,42,-1,44,46,-1,48,50,52,54,56,58,-1,-1,60,62,64,66,68,70,72,74,-1,-1,76,78,-1,-1,-1,-1,-1,-1,-1,-1,-1,-1,-1,-1,-1,-1,-1,-1,-1,-1,-1,-1,-1,-1,-1,-1,-1,-1,-1,-1,-1,-1,-1,-1],"split_conditions":[1E0,9.33956E-3,2.6684457E-3,9.139426E-3,9.539694E-3,1.8072289E-1,5.983146E-1,1E0,8.130081E-2,5.691057E-2,1.0173449E-2,-2.8123185E-1,2.88941E-1,6.231884E-1,1E0,3.7349397E-1,1E0,1.0843374E-1,5.1629215E-1,1E0,1E0,1.0006671E-2,1.0273515E-2,-3.1473854E-1,2.4390243E-2,1.2008006E-2,-2.9774463E-1,8.338893E-3,1E0,7.6717813E-3,3.2258064E-2,8.8709675E-2,4.8387095E-2,-2.5140712E-1,8.8069744E-2,1E0,2.4390243E-2,1.9057971E-1,2.9044944E-1,1E0,2.7710843E-1,1E0,1.09644765E-2,8.675489E-2,-2.0330784E-1,1E0,1.867912E-2,-1.834699E-2,8.963833E-2,3.0581796E-1,-1.1809011E-2,4.3347076E-1,4.1381966E-2,3.7388268E-1,-6.982196E-2,7.6110476E-1,6.67245E-2,7.6466195E-2,5.457642E-1,-2.9454857E-1,-6.151356E-2,1.4062576E-1,-1.9001155E-1,-9.2956394E-2,-3.228728E-1,-2.266028E-1,2.587572E-1,-5.9146382E-2,3.358193E-1,1.962819E-1,6.304492E-1,-3.2500505E-1,-4.3324377E-2,1.4551052E-1,-2.9604873E-2,2.1583053E-1,-1.3471666E-1,-2.2456606E-1,1.15100086E-1],"split_indices":[9,1,1,1,1,5,4,13,2,2,1,0,0,3,20,5,7,5,4,20,18,1,1,0,2,1,0,1,7,1,0,0,0,0,0,13,2,3,4,14,5,14,1,0,0,15,1,0,0,0,0,0,0,0,0,0,0,0,0,0,0,0,0,0,0,0,0,0,0,0,0,0,0,0,0,0,0,0,0],"split_type":[0,0,0,0,0,0,0,0,0,0,0,0,0,0,0,0,0,0,0,0,0,0,0,0,0,0,0,0,0,0,0,0,0,0,0,0,0,0,0,0,0,0,0,0,0,0,0,0,0,0,0,0,0,0,0,0,0,0,0,0,0,0,0,0,0,0,0,0,0,0,0,0,0,0,0,0,0,0,0],"sum_hessian":[3.2171343E3,3.1357722E3,8.1362206E1,1.9051669E3,1.2306052E3,1.1737281E1,6.962492E1,1.866026E3,3.9140854E1,9.986623E1,1.130739E3,2.2772188E0,9.460062E0,5.1415867E1,1.8209057E1,1.6720228E3,1.940032E2,3.5572445E1,3.5684102E0,7.130352E1,2.8562706E1,1.031969E2,1.0275421E3,4.831671E1,3.099158E0,1.4221825E1,3.987233E0,1.486919E3,1.8510378E2,9.4914246E1,9.908896E1,1.0057104E1,2.551534E1,2.38561E0,1.1828002E0,6.184582E1,9.457695E0,1.8246181E1,1.0316524E1,7.2079735E1,3.1117159E1,5.406746E1,9.734747E2,1.2739106E0,1.8252474E0,1.07529545E1,3.4688704E0,1.313835E3,1.7308405E2,7.041852E1,1.1468526E2,5.4657562E1,4.0256687E1,8.4172535E0,9.06717E1,8.786778E0,1.2703258E0,1.2116704E1,1.3398636E1,5.430097E1,7.544854E0,3.9409013E0,5.5167937E0,5.5112424E0,1.2734939E1,2.3320134E0,7.9845104E0,5.5198433E1,1.6881306E1,2.2449644E1,8.667516E0,4.5777767E1,8.289694E0,9.060621E1,8.8286847E2,9.525628E0,1.2273264E0,1.9008124E0,1.568058E0],"tree_param":{"num_deleted":"0","num_feature":"26","num_nodes":"79","size_leaf_vector":"1"}},{"base_weights":[8.255288E-4,-5.839849E-3,1.2515913E0,-1.8670847E-1,3.156328E-2,9.0070136E-2,3.894519E-1,-2.1556781E-1,4.9804348E-1,1.8894173E-1,-1.1472513E-2,-1.8423565E-1,-8.2654494E-1,1.0404619E0,2.5085079E-2,3.9626017E-2,3.192138E-1,-7.5847995E-1,3.568641E-3,-1.9387282E-1,1.228862E0,9.2515305E-2,-9.1747767E-1,1.2501506E0,-2.5425259E-2,4.47016E-1,-6.133659E-1,4.965563E-1,-1.298302E-1,1.4087014E0,2.551376E-1,-3.3087826E-1,-1.1062727E0,4.5025963E-2,-1.4567345E-1,-1.2227895E-1,-3.9103117E-2,5.621179E-1,5.9265796E-2,-2.9320964E-1,-7.357236E-2,4.616027E-1,2.0003773E-2,3.4744298E-1,-1.8510279E-1,-3.0547318E-1,1.603276E-1,-4.398699E-2,3.20185E-1,-3.4932836E-4,-2.0192458E-1,4.7790274E-1,-1.859662E-1,3.342695E-2,1.431588E-1,-1.428813E-1,2.3974927E-1,-3.448649E-1,-6.2566064E-2,2.5098475E-2,-4.9072262E-2,-8.834501E-2,8.386409E-2],"categories":[],"categories_nodes":[],"categories_segments":[],"categories_sizes":[],"default_left":[0,0,0,0,0,0,0,0,0,0,0,0,0,0,0,0,0,0,0,0,0,0,0,0,0,0,0,0,0,0,0,0,0,0,0,0,0,0,0,0,0,0,0,0,0,0,0,0,0,0,0,0,0,0,0,0,0,0,0,0,0,0,0],"id":13,"left_children":[1,3,5,7,9,-1,-1,11,13,15,17,19,21,23,25,27,29,31,33,35,37,-1,39,41,-1,43,45,47,49,51,53,55,57,59,61,-1,-1,-1,-1,-1,-1,-1,-1,-1,-1,-1,-1,-1,-1,-1,-1,-1,-1,-1,-1,-1,-1,-1,-1,-1,-1,-1,-1],"loss_changes":[2.626245E1,2.1204847E1,3.5024452E-1,1.0721642E1,1.7594648E1,0E0,0E0,9.727463E0,5.6239314E0,1.0837973E1,2.29312E1,6.941248E0,2.851488E0,2.520587E0,3.719568E0,2.0277988E1,2.0427868E1,5.624668E0,1.23894005E1,6.5963554E0,1.937798E0,0E0,6.980953E-1,2.8646488E0,0E0,6.979107E0,3.1051009E0,2.6157068E1,1.3365489E1,7.0888176E0,8.960638E0,3.5836437E0,6.067238E-1,1.264312E1,2.762849E1,0E0,0E0,0E0,0E0,0E0,0E0,0E0,0E0,0E0,0E0,0E0,0E0,0E0,0E0,0E0,0E0,0E0,0E0,0E0,0E0,0E0,0E0,0E0,0E0,0E0,0E0,0E0,0E0],"parents":[2147483647,0,0,1,1,2,2,3,3,4,4,7,7,8,8,9,9,10,10,11,11,12,12,13,13,14,14,15,15,16,16,17,17,18,18,19,19,20,20,22,22,23,23,25,25,26,26,27,27,28,28,29,29,30,30,31,31,32,32,33,33,34,34],"right_children":[2,4,6,8,10,-1,-1,12,14,16,18,20,22,24,26,28,30,32,34,36,38,-1,40,42,-1,44,46,48,50,52,54,56,58,60,62,-1,-1,-1,-1,-1,-1,-1,-1,-1,-1,-1,-1,-1,-1,-1,-1,-1,-1,-1,-1,-1,-1,-1,-1,-1,-1,-1,-1],"split_conditions":[1E0,1.7247191E-1,6.0144927E-2,4.5783132E-1,5.1367576E-3,9.0070136E-2,3.894519E-1,1E0,4.5363577E-3,4.1694464E-3,5.2128085E-3,1.6260162E-1,2.6350901E-3,1E0,1.4285715E-1,2.6684457E-3,4.1701132E-3,1.3405797E-1,1E0,6.2921345E-2,1.7073171E-1,9.2515305E-2,3.8554215E-1,1E0,-2.5425259E-2,1.1741573E-1,1E0,1.9277108E-1,1E0,1E0,1.884058E-1,1E0,4.347826E-1,1E0,8.064516E-2,-1.2227895E-1,-3.9103117E-2,5.621179E-1,5.9265796E-2,-2.9320964E-1,-7.357236E-2,4.616027E-1,2.0003773E-2,3.4744298E-1,-1.8510279E-1,-3.0547318E-1,1.603276E-1,-4.398699E-2,3.20185E-1,-3.4932836E-4,-2.0192458E-1,4.7790274E-1,-1.859662E-1,3.342695E-2,1.431588E-1,-1.428813E-1,2.3974927E-1,-3.448649E-1,-6.2566064E-2,2.5098475E-2,-4.9072262E-2,-8.834501E-2,8.386409E-2],"split_indices":[23,4,3,5,1,0,0,16,1,1,1,2,1,16,6,1,1,3,12,4,2,0,5,11,0,4,10,5,12,7,3,17,3,16,0,0,0,0,0,0,0,0,0,0,0,0,0,0,0,0,0,0,0,0,0,0,0,0,0,0,0,0,0],"split_type":[0,0,0,0,0,0,0,0,0,0,0,0,0,0,0,0,0,0,0,0,0,0,0,0,0,0,0,0,0,0,0,0,0,0,0,0,0,0,0,0,0,0,0,0,0,0,0,0,0,0,0,0,0,0,0,0,0,0,0,0,0,0,0],"sum_hessian":[3.1482966E3,3.1325981E3,1.56984005E1,5.3611914E2,2.596479E3,1.0802969E0,1.4618104E1,5.150953E2,2.1023865E1,5.568248E2,2.0396542E3,4.9120673E2,2.3888557E1,9.233922E0,1.1789944E1,2.600565E2,2.967683E2,3.9282684E1,2.0003716E3,4.887364E2,2.4703279E0,1.5946324E0,2.2293926E1,7.689848E0,1.5440738E0,7.279204E0,4.51074E0,6.9830826E1,1.9022568E2,1.5318756E1,2.8144955E2,1.849498E1,2.0787704E1,1.5660449E3,4.343266E2,1.1074702E2,3.7798938E2,1.0173501E0,1.4529777E0,2.0053509E1,2.240416E0,5.941258E0,1.7485898E0,4.31013E0,2.9690735E0,3.417943E0,1.0927969E0,3.318084E1,3.6649986E1,1.5460951E2,3.5616154E1,1.4239725E1,1.0790313E0,1.7177795E2,1.09671585E2,1.6899239E1,1.5957413E0,1.9564045E1,1.2236582E0,1.321824E3,2.44221E2,3.2196085E2,1.12365776E2],"tree_param":{"num_deleted":"0","num_feature":"26","num_nodes":"63","size_leaf_vector":"1"}},{"base_weights":[7.0575404E-4,1.2385979E-2,-5.6096995E-1,-5.3719403E-3,3.716196E-1,4.3268394E-1,-7.1047604E-1,3.3561073E-2,-1.8106377E-1,2.937727E-1,1.1210587E0,-2.4981226E-1,2.6777E-1,-9.7995365E-1,-4.3219227E-2,1.8307876E-2,7.330896E-1,-1.0424438E0,-1.3877037E-1,4.073008E-1,-2.4452896E-1,7.762806E-2,3.52228E-1,-3.0441794E-1,-6.4121545E-3,2.2668463E-1,-2.7208632E-1,-1.9841928E-2,2.4957417E-1,1.1431642E0,2.3207206E-1,-3.2297274E-1,-1.2628816E-1,-2.378742E-1,8.194165E-2,5.415365E-1,1.5611909E-2,5.8463484E-1,-6.475533E-1,7.75245E-1,-7.682245E-2,-2.450188E-2,5.246121E-2,2.1584146E-1,9.083279E-3,4.1139248E-1,-1.7849194E-1,-2.3978533E-1,1.3957998E-1,-1.2563682E-2,-1.0722415E-1,-1.1148388E-2,2.1486214E-1,2.0788753E-1,3.5939142E-2,8.7755546E-2,-1.8107197E-1,2.8632724E-1,-1.7899272E-1,1.3292632E-2,-3.5609537E-1,2.8310245E-1,4.583745E-2,-2.4293774E-1,1.8198529E-1],"categories":[],"categories_nodes":[],"categories_segments":[],"categories_sizes":[],"default_left":[0,0,0,0,0,0,0,0,0,0,0,0,0,0,0,0,0,0,0,0,0,0,0,0,0,0,0,0,0,0,0,0,0,0,0,0,0,0,0,0,0,0,0,0,0,0,0,0,0,0,0,0,0,0,0,0,0,0,0,0,0,0,0,0,0],"id":14,"left_children":[1,3,5,7,9,11,13,15,17,19,21,-1,-1,23,25,27,29,31,33,35,37,-1,-1,-1,-1,39,-1,41,43,45,47,-1,-1,49,51,53,55,57,59,61,63,-1,-1,-1,-1,-1,-1,-1,-1,-1,-1,-1,-1,-1,-1,-1,-1,-1,-1,-1,-1,-1,-1,-1,-1],"loss_changes":[2.0386068E1,1.9420626E1,9.711517E0,1.9853859E1,8.036913E0,5.9227033E0,9.919603E0,2.533988E1,1.9036581E1,8.121358E0,2.9705238E-1,0E0,0E0,1.2922211E0,4.1650395E0,2.0530575E1,1.0147133E1,6.625748E-2,1.1022366E1,5.7108307E0,8.227183E0,0E0,0E0,0E0,0E0,2.3472433E0,0E0,2.4068007E1,3.3932327E1,1.176635E1,6.1597495E0,0E0,0E0,8.124458E0,1.185815E1,5.0885735E0,5.113363E0,4.1546984E0,6.128144E0,3.7839317E-1,5.378405E0,0E0,0E0,0E0,0E0,0E0,0E0,0E0,0E0,0E0,0E0,0E0,0E0,0E0,0E0,0E0,0E0,0E0,0E0,0E0,0E0,0E0,0E0,0E0,0E0],"parents":[2147483647,0,0,1,1,2,2,3,3,4,4,5,5,6,6,7,7,8,8,9,9,10,10,13,13,14,14,15,15,16,16,17,17,18,18,19,19,20,20,25,25,27,27,28,28,29,29,30,30,33,33,34,34,35,35,36,36,37,37,38,38,39,39,40,40],"right_children":[2,4,6,8,10,12,14,16,18,20,22,-1,-1,24,26,28,30,32,34,36,38,-1,-1,-1,-1,40,-1,42,44,46,48,-1,-1,50,52,54,56,58,60,62,64,-1,-1,-1,-1,-1,-1,-1,-1,-1,-1,-1,-1,-1,-1,-1,-1,-1,-1,-1,-1,-1,-1,-1,-1],"split_conditions":[1E0,6.44382E-1,2.6684457E-3,1.2675117E-2,1E0,1.8072289E-1,5.983146E-1,1.2258172E-2,1.2675784E-2,1E0,6.0144927E-2,-2.4981226E-1,2.6777E-1,1E0,1E0,1E0,1.8072289E-1,6.884058E-1,5.217391E-1,1E0,2.4390243E-2,7.762806E-2,3.52228E-1,-3.0441794E-1,-6.4121545E-3,2.3768117E-1,-2.7208632E-1,5.691057E-2,2.4390243E-2,1E0,3.2258064E-2,-3.2297274E-1,-1.2628816E-1,1E0,8.943089E-2,1E0,1E0,1.9012675E-2,6.8314606E-1,9.839893E-3,4.710145E-1,-2.450188E-2,5.246121E-2,2.1584146E-1,9.083279E-3,4.1139248E-1,-1.7849194E-1,-2.3978533E-1,1.3957998E-1,-1.2563682E-2,-1.0722415E-1,-1.1148388E-2,2.1486214E-1,2.0788753E-1,3.5939142E-2,8.7755546E-2,-1.8107197E-1,2.8632724E-1,-1.7899272E-1,1.3292632E-2,-3.5609537E-1,2.8310245E-1,4.583745E-2,-2.4293774E-1,1.8198529E-1],"split_indices":[9,4,1,1,23,5,4,1,1,15,3,0,0,21,20,20,5,3,3,16,2,0,0,0,0,3,0,2,2,14,0,0,0,7,2,13,20,1,4,1,3,0,0,0,0,0,0,0,0,0,0,0,0,0,0,0,0,0,0,0,0,0,0,0,0],"split_type":[0,0,0,0,0,0,0,0,0,0,0,0,0,0,0,0,0,0,0,0,0,0,0,0,0,0,0,0,0,0,0,0,0,0,0,0,0,0,0,0,0,0,0,0,0,0,0,0,0,0,0,0,0,0,0,0,0,0,0,0,0,0,0,0,0],"sum_hessian":[3.1053367E3,3.0430337E3,6.2302906E1,2.9006323E3,1.4240129E2,7.900455E0,5.440245E1,2.3751191E3,5.2551337E2,1.3026245E2,1.2138839E1,1.88982E0,6.0106354E0,3.8418262E1,1.5984189E1,2.3254392E3,4.9679947E1,2.3488127E1,5.0202527E2,1.0777583E2,2.2486624E1,1.0439607E0,1.1094878E1,3.701689E1,1.4013727E0,1.2740525E1,3.2436638E0,1.9969375E3,3.2850162E2,2.6614632E1,2.3065315E1,2.1571167E1,1.9169593E0,3.4640515E2,1.5562013E2,7.998247E1,2.7793364E1,7.207541E0,1.5279082E1,3.984546E0,8.75598E0,1.5160851E3,4.8085236E2,1.03801125E2,2.2470049E2,2.3713144E1,2.9014874E0,3.8057902E0,1.9259525E1,1.3174632E2,2.1465881E2,1.318101E2,2.3810013E1,5.837892E1,2.1603548E1,1.9569319E1,8.224044E0,5.6354494E0,1.5720916E0,7.0959015E0,8.18318E0,2.7298253E0,1.2547206E0,4.135691E0,4.6202884E0],"tree_param":{"num_deleted":"0","num_feature":"26","num_nodes":"65","size_leaf_vector":"1"}},{"base_weights":[-4.380458E-5,3.5307493E-2,-1.2929194E-1,2.1400988E-1,-2.0228779E-2,-3.9697614E-1,4.2643577E-2,1.1515638E-1,1.5386504E0,-1.3668506E-1,5.3364687E-2,-6.5477127E-1,-2.3150633E-1,1.1145044E-1,-2.8756633E-1,1.4797738E-1,-3.0336058E-1,3.6876887E-1,5.633915E-1,-9.4981864E-2,-8.0960745E-1,-1.7602442E-2,3.6958593E-1,-4.6465188E-1,-9.492804E-1,-1.6772176E-1,-9.812202E-1,4.5527007E-2,4.875032E-1,-5.0561917E-1,5.8199006E-1,7.245911E-2,5.3774774E-1,2.445567E-1,-1.585106E-1,-9.7185147E-1,-1.9716458E-1,5.8398914E-1,-4.0227905E-2,7.142175E-1,1.3634755E-2,-3.1534055E-1,-1.0175762E0,-1.0053998E0,1.5365185E-1,-2.1179846E-1,9.035202E-1,7.805577E-2,-3.5108203E-1,3.1152358E-2,5.608471E-1,1.9112252E-1,9.43109E-1,-1.0267775E0,-3.5053954E-2,8.152898E-1,-2.8849846E-1,-1.936756E-2,7.145953E-2,1.9682324E-1,-4.242502E-2,-9.897705E-2,1.4229542E-1,-5.2684493E-2,2.595812E-1,-7.8294836E-2,-3.02232E-1,-2.1780764E-1,2.2903976E-1,2.6404127E-1,-2.2026774E-2,2.0923877E-2,-4.1802578E-2,4.99238E-1,1.7407575E-1,-1.2895148E-1,1.0094113E-1,-1.3221133E-1,3.2701707E-1,-3.2486787E-1,-1.2240919E-1,3.7212018E-2,-3.138878E-1,-1.0444202E-1,2.6318586E-2,-1.5535084E-2,9.552814E-2,2.3027594E-1,-1.954571E-1,-2.7360094E-1,4.237776E-1,-3.9135303E-2,-4.684117E-1,3.072908E-1,-1.4517246E-1,2.4618683E-2,3.902119E-1],"categories":[],"categories_nodes":[],"categories_segments":[],"categories_sizes":[],"default_left":[0,0,0,0,0,0,0,0,0,0,0,0,0,0,0,0,0,0,0,0,0,0,0,0,0,0,0,0,0,0,0,0,0,0,0,0,0,0,0,0,0,0,0,0,0,0,0,0,0,0,0,0,0,0,0,0,0,0,0,0,0,0,0,0,0,0,0,0,0,0,0,0,0,0,0,0,0,0,0,0,0,0,0,0,0,0,0,0,0,0,0,0,0,0,0,0,0],"id":15,"left_children":[1,3,5,7,9,11,13,15,17,19,21,23,25,27,29,31,-1,-1,-1,33,35,37,39,41,43,45,47,49,51,53,55,57,59,61,63,65,67,69,71,73,75,77,79,81,-1,83,-1,-1,-1,85,-1,87,89,91,93,95,-1,-1,-1,-1,-1,-1,-1,-1,-1,-1,-1,-1,-1,-1,-1,-1,-1,-1,-1,-1,-1,-1,-1,-1,-1,-1,-1,-1,-1,-1,-1,-1,-1,-1,-1,-1,-1,-1,-1,-1,-1],"loss_changes":[1.3963415E1,2.3820133E1,3.02253E1,7.433586E1,1.5705454E1,1.0802731E1,9.1329975E0,1.9765095E1,1.8319931E0,1.9835548E1,2.5210457E1,5.149414E0,7.388773E0,8.213409E0,1.34440155E1,1.5162704E1,0E0,0E0,0E0,1.4475597E1,3.909666E0,1.2521479E1,2.5248133E1,4.850089E0,3.6487885E0,2.1206852E1,3.1626997E0,7.3815665E0,6.4967785E0,1.3693155E1,5.958832E0,9.866311E0,6.816677E0,1.413218E1,1.0035335E1,5.561466E-1,5.5832586E0,6.5567875E0,9.665593E0,1.2344288E1,1.4791503E1,9.424664E0,7.0485115E-2,1.844883E0,0E0,5.980717E0,0E0,0E0,0E0,6.748507E0,0E0,1.5661917E1,1.804053E1,1.250779E1,1.4976778E1,4.5286846E0,0E0,0E0,0E0,0E0,0E0,0E0,0E0,0E0,0E0,0E0,0E0,0E0,0E0,0E0,0E0,0E0,0E0,0E0,0E0,0E0,0E0,0E0,0E0,0E0,0E0,0E0,0E0,0E0,0E0,0E0,0E0,0E0,0E0,0E0,0E0,0E0,0E0,0E0,0E0,0E0,0E0],"parents":[2147483647,0,0,1,1,2,2,3,3,4,4,5,5,6,6,7,7,8,8,9,9,10,10,11,11,12,12,13,13,14,14,15,15,19,19,20,20,21,21,22,22,23,23,24,24,25,25,26,26,27,27,28,28,29,29,30,30,31,31,32,32,33,33,34,34,35,35,36,36,37,37,38,38,39,39,40,40,41,41,42,42,43,43,45,45,49,49,51,51,52,52,53,53,54,54,55,55],"right_children":[2,4,6,8,10,12,14,16,18,20,22,24,26,28,30,32,-1,-1,-1,34,36,38,40,42,44,46,48,50,52,54,56,58,60,62,64,66,68,70,72,74,76,78,80,82,-1,84,-1,-1,-1,86,-1,88,90,92,94,96,-1,-1,-1,-1,-1,-1,-1,-1,-1,-1,-1,-1,-1,-1,-1,-1,-1,-1,-1,-1,-1,-1,-1,-1,-1,-1,-1,-1,-1,-1,-1,-1,-1,-1,-1,-1,-1,-1,-1,-1,-1],"split_conditions":[1E0,3.2258064E-2,3.2258064E-2,1E0,3.280899E-1,1.6867469E-1,1E0,1.8511675E-2,9.739826E-3,1E0,1E0,1.2048193E-1,1.3342228E-2,8.130081E-2,1.2903225E-1,1E0,-3.0336058E-1,3.6876887E-1,5.633915E-1,7.826087E-2,3.7349397E-1,3.1687792E-3,1E0,1.2258172E-2,2.0161107E-2,1.317545E-2,1.8072289E-1,2.7419356E-1,1.1685124E-2,1E0,2.1847898E-2,2.4193548E-2,6.123595E-1,4.419613E-3,1E0,2.6350901E-3,1E0,8.8709675E-2,1.8072289E-1,4.419613E-3,3.2520324E-2,1.1424283E-2,2.2348233E-2,1.5010007E-3,1.5365185E-1,4.8780486E-2,9.035202E-1,7.805577E-2,-3.5108203E-1,2.8915662E-1,5.608471E-1,8.088726E-3,2.4347825E-1,8.739159E-3,2.4390243E-2,5.4550564E-1,-2.8849846E-1,-1.936756E-2,7.145953E-2,1.9682324E-1,-4.242502E-2,-9.897705E-2,1.4229542E-1,-5.2684493E-2,2.595812E-1,-7.8294836E-2,-3.02232E-1,-2.1780764E-1,2.2903976E-1,2.6404127E-1,-2.2026774E-2,2.0923877E-2,-4.1802578E-2,4.99238E-1,1.7407575E-1,-1.2895148E-1,1.0094113E-1,-1.3221133E-1,3.2701707E-1,-3.2486787E-1,-1.2240919E-1,3.7212018E-2,-3.138878E-1,-1.0444202E-1,2.6318586E-2,-1.5535084E-2,9.552814E-2,2.3027594E-1,-1.954571E-1,-2.7360094E-1,4.237776E-1,-3.9135303E-2,-4.684117E-1,3.072908E-1,-1.4517246E-1,2.4618683E-2,3.902119E-1],"split_indices":[12,0,0,13,4,5,20,1,1,16,11,5,1,2,0,20,0,0,0,3,5,1,19,1,1,1,5,0,1,10,1,0,4,1,19,1,10,0,5,1,2,1,1,1,0,2,0,0,0,5,0,1,3,1,2,4,0,0,0,0,0,0,0,0,0,0,0,0,0,0,0,0,0,0,0,0,0,0,0,0,0,0,0,0,0,0,0,0,0,0,0,0,0,0,0,0,0],"split_type":[0,0,0,0,0,0,0,0,0,0,0,0,0,0,0,0,0,0,0,0,0,0,0,0,0,0,0,0,0,0,0,0,0,0,0,0,0,0,0,0,0,0,0,0,0,0,0,0,0,0,0,0,0,0,0,0,0,0,0,0,0,0,0,0,0,0,0,0,0,0,0,0,0,0,0,0,0,0,0,0,0,0,0,0,0,0,0,0,0,0,0,0,0,0,0,0,0],"sum_hessian":[3.0540618E3,2.3987065E3,6.553553E2,5.680392E2,1.8306674E3,2.5579791E2,3.9955737E2,5.296036E2,3.843561E1,7.085622E2,1.1221051E3,9.884479E1,1.5695312E2,3.3120554E2,6.8351845E1,5.1545245E2,1.4151167E1,2.2521385E1,1.59142275E1,6.682874E2,4.027479E1,9.172076E2,2.0489758E2,6.163454E1,3.721025E1,1.4577455E2,1.1178572E1,2.827581E2,4.8447468E1,5.4982723E1,1.3369117E1,4.327858E2,8.266663E1,1.048818E2,5.634056E2,3.1376032E1,8.898758E0,3.2345932E1,8.8486163E2,1.0359272E2,1.0130486E2,4.976606E1,1.1868479E1,3.613474E1,1.0755112E0,1.4470193E2,1.0726131E0,1.4276619E0,9.75091E0,2.815562E2,1.2018641E0,3.0212877E1,1.823459E1,2.5528025E1,2.94547E1,1.2023751E1,1.345366E0,2.3725566E2,1.9553014E2,7.042977E1,1.2236866E1,2.9838825E1,7.504297E1,5.549623E2,8.44332E0,1.8932083E0,2.9482824E1,5.8966594E0,3.0020988E0,2.206664E1,1.027929E1,4.195912E2,4.6527042E2,1.1392135E1,9.2200584E1,4.253876E1,5.87661E1,4.6320606E1,3.4454563E0,1.0018389E1,1.8500903E0,1.1915433E0,3.4943195E1,9.932701E1,4.5374924E1,2.1911705E2,6.2439156E1,1.7992842E1,1.2220035E1,3.4923546E0,1.4742236E1,1.0002084E1,1.5525942E1,8.384384E0,2.1070314E1,5.255026E0,6.768725E0],"tree_param":{"num_deleted":"0","num_feature":"26","num_nodes":"97","size_leaf_vector":"1"}},{"base_weights":[-7.273881E-4,8.268617E-3,-5.272625E-1,8.935065E-2,-4.0835056E-2,3.75896E-1,-6.586943E-1,3.138237E-2,1.1017894E0,-7.4644136E-1,-1.3172557E-2,-2.2733217E-1,2.5278512E-1,-9.507035E-1,-4.6651836E-2,1.0556201E-1,-3.0727002E-1,1.2019926E0,-3.3510026E-1,-9.788067E-1,-2.7762803E-1,7.767119E-1,-3.488891E-2,-3.0418137E-1,-1.2705366E-1,1.8226981E-1,-2.488984E-1,5.0261024E-2,9.96228E-1,-8.576578E-1,-5.944456E-2,1.6935275E0,7.6528805E-1,-1.0111375E0,6.514455E-2,-4.7316796E-1,1.0053699E0,9.493968E-1,-2.6043496E-1,-3.5120773E-1,7.3888144E-3,1.23820536E-1,-1.7183329E-1,-6.0523927E-2,2.4700154E-1,2.6533185E-2,-1.9441389E-1,3.167767E-1,-1.7535323E-1,-2.9184946E-1,2.3451516E-2,1.3577221E-1,-6.46935E-2,6.0226053E-1,1.3995506E-1,-2.8799057E-1,2.6753283E-1,-1.7932624E-1,-3.1898287E-1,1.14922434E-1,-2.0782915E-1,6.719865E-2,3.8789937E-1,3.754951E-1,1.4246546E-2,-2.8364164E-1,2.8298634E-1,3.893957E-2,-3.3242977E-1,1.3789669E-1,-1.5667664E-2,1.8889202E-1,-1.3527642E-1],"categories":[],"categories_nodes":[],"categories_segments":[],"categories_sizes":[],"default_left":[0,0,0,0,0,0,0,0,0,0,0,0,0,0,0,0,0,0,0,0,0,0,0,0,0,0,0,0,0,0,0,0,0,0,0,0,0,0,0,0,0,0,0,0,0,0,0,0,0,0,0,0,0,0,0,0,0,0,0,0,0,0,0,0,0,0,0,0,0,0,0,0,0],"id":16,"left_children":[1,3,5,7,9,11,13,15,17,19,21,-1,-1,23,25,27,29,31,-1,33,35,37,39,-1,41,43,-1,45,47,49,51,53,55,57,-1,59,61,63,65,67,69,-1,-1,71,-1,-1,-1,-1,-1,-1,-1,-1,-1,-1,-1,-1,-1,-1,-1,-1,-1,-1,-1,-1,-1,-1,-1,-1,-1,-1,-1,-1,-1],"loss_changes":[1.4254408E1,1.1784185E1,6.248293E0,6.548307E1,3.597366E1,4.373299E0,7.9075584E0,2.658344E1,1.47773285E1,7.3024597E0,3.0474367E1,0E0,0E0,1.4373226E0,2.9157474E0,4.2690792E1,2.5887974E1,1.1217834E1,0E0,2.0017548E0,6.606475E0,8.761177E0,2.3117714E1,0E0,1.0273075E0,2.0349264E0,0E0,2.1870022E1,5.398987E0,6.431797E0,1.0670635E1,9.3131485E0,7.990917E0,3.3551407E-1,0E0,4.3804336E0,5.086489E-1,1.1108482E1,7.134005E0,7.434201E1,4.1158188E1,0E0,0E0,3.0273094E0,0E0,0E0,0E0,0E0,0E0,0E0,0E0,0E0,0E0,0E0,0E0,0E0,0E0,0E0,0E0,0E0,0E0,0E0,0E0,0E0,0E0,0E0,0E0,0E0,0E0,0E0,0E0,0E0,0E0],"parents":[2147483647,0,0,1,1,2,2,3,3,4,4,5,5,6,6,7,7,8,8,9,9,10,10,13,13,14,14,15,15,16,16,17,17,19,19,20,20,21,21,22,22,24,24,25,25,27,27,28,28,29,29,30,30,31,31,32,32,33,33,35,35,36,36,37,37,38,38,39,39,40,40,43,43],"right_children":[2,4,6,8,10,12,14,16,18,20,22,-1,-1,24,26,28,30,32,-1,34,36,38,40,-1,42,44,-1,46,48,50,52,54,56,58,-1,60,62,64,66,68,70,-1,-1,72,-1,-1,-1,-1,-1,-1,-1,-1,-1,-1,-1,-1,-1,-1,-1,-1,-1,-1,-1,-1,-1,-1,-1,-1,-1,-1,-1,-1,-1],"split_conditions":[1E0,6.754503E-3,2.6350901E-3,6.671114E-3,6.964643E-3,1.8072289E-1,5.983146E-1,6.0033356E-3,8.943089E-2,7.258064E-2,7.171448E-3,-2.2733217E-1,2.5278512E-1,6.231884E-1,1E0,5.837225E-3,6.137425E-3,4.0786517E-1,-3.3510026E-1,1E0,1E0,1E0,7.838559E-3,-3.0418137E-1,6.884058E-1,1E0,-2.488984E-1,5.587058E-3,1.6129032E-1,3.5652173E-1,6.2708473E-3,1E0,4.1460675E-1,8.130081E-3,6.514455E-2,1E0,8.8709675E-2,4.97191E-1,4.0393257E-1,7.6717813E-3,8.5050035E-3,1.23820536E-1,-1.7183329E-1,2.3768117E-1,2.4700154E-1,2.6533185E-2,-1.9441389E-1,3.167767E-1,-1.7535323E-1,-2.9184946E-1,2.3451516E-2,1.3577221E-1,-6.46935E-2,6.0226053E-1,1.3995506E-1,-2.8799057E-1,2.6753283E-1,-1.7932624E-1,-3.1898287E-1,1.14922434E-1,-2.0782915E-1,6.719865E-2,3.8789937E-1,3.754951E-1,1.4246546E-2,-2.8364164E-1,2.8298634E-1,3.893957E-2,-3.3242977E-1,1.3789669E-1,-1.5667664E-2,1.8889202E-1,-1.3527642E-1],"split_indices":[9,1,1,1,1,5,4,1,2,0,1,0,0,3,20,1,1,4,0,21,13,11,1,0,3,14,0,1,0,3,1,14,4,2,0,24,0,4,4,1,1,0,0,3,0,0,0,0,0,0,0,0,0,0,0,0,0,0,0,0,0,0,0,0,0,0,0,0,0,0,0,0,0],"split_type":[0,0,0,0,0,0,0,0,0,0,0,0,0,0,0,0,0,0,0,0,0,0,0,0,0,0,0,0,0,0,0,0,0,0,0,0,0,0,0,0,0,0,0,0,0,0,0,0,0,0,0,0,0,0,0,0,0,0,0,0,0,0,0,0,0,0,0,0,0,0,0,0,0],"sum_hessian":[3.0074255E3,2.9578738E3,4.9551834E1,1.1153469E3,1.842527E3,6.0586524E0,4.349318E1,1.05592E3,5.9426853E1,6.852893E1,1.773998E3,1.5850176E0,4.4736347E0,2.9070257E1,1.4422922E1,8.667519E2,1.8916817E2,5.7297497E1,2.1293566E0,4.509162E1,2.3437307E1,4.6537373E1,1.7274606E3,2.6783007E1,2.2872512E0,1.1753789E1,2.6691337E0,8.170765E2,4.967542E1,5.7968033E1,1.3120013E2,2.5602507E1,3.169499E1,4.405519E1,1.0364305E0,2.0885395E1,2.5519125E0,3.996741E1,6.5699644E0,2.028022E2,1.5246584E3,1.0679431E0,1.219308E0,9.181893E0,2.5718954E0,7.7554364E2,4.15328E1,4.818769E1,1.4877303E0,5.158043E1,6.3876057E0,3.0225338E1,1.0097479E2,1.987908E1,5.723427E0,1.714899E0,2.9980091E1,6.3302507E0,3.7724937E1,4.1110883E0,1.6774307E1,1.1652217E0,1.3866909E0,2.964485E1,1.0322559E1,4.3238244E0,2.24614E0,1.2450652E2,7.829568E1,1.7678224E2,1.3478762E3,3.0959325E0,6.085961E0],"tree_param":{"num_deleted":"0","num_feature":"26","num_nodes":"73","size_leaf_vector":"1"}},{"base_weights":[-3.302642E-3,-7.2664954E-3,1.0180008E0,-2.9419828E-4,-5.073817E-1,7.33982E-2,3.248619E-1,-1.6859945E-2,1.8212678E-1,3.3494997E-1,-6.3271606E-1,2.495951E-3,-1.8780302E-1,3.03573E-1,-1.3144806E-1,-2.0774555E-1,2.397973E-1,-7.550363E-1,5.470045E-1,-2.3949761E-2,1.62729E-1,-5.3040862E-2,-1.0018013E0,-6.547077E-1,-7.523025E-2,-2.9743084E-1,-9.2241235E-2,2.5441316E-1,-2.0575024E-2,-3.703606E-2,1.565999E-2,1.28299715E-2,3.2535714E-1,9.448477E-2,-7.665169E-2,-4.8786037E-2,-3.076024E-1,-3.3196813E-1,-3.865769E-2,2.732788E-1,-4.0040478E-2,-9.102199E-2,2.577261E-1],"categories":[],"categories_nodes":[],"categories_segments":[],"categories_sizes":[],"default_left":[0,0,0,0,0,0,0,0,0,0,0,0,0,0,0,0,0,0,0,0,0,0,0,0,0,0,0,0,0,0,0,0,0,0,0,0,0,0,0,0,0,0,0],"id":17,"left_children":[1,3,5,7,9,-1,-1,11,13,15,17,19,21,-1,23,-1,-1,25,27,29,31,33,35,37,39,-1,41,-1,-1,-1,-1,-1,-1,-1,-1,-1,-1,-1,-1,-1,-1,-1,-1],"loss_changes":[1.2070522E1,1.035357E1,3.1337738E-1,8.855688E0,4.5220604E0,0E0,0E0,8.889397E0,6.3611946E1,3.388411E0,5.5912457E0,1.0234108E1,2.9922863E1,0E0,5.1850967E0,0E0,0E0,5.0686817E0,7.9035294E-1,1.5714593E1,3.7787415E1,1.7626802E1,5.989151E-1,3.928289E0,9.414435E0,0E0,2.2214742E0,0E0,0E0,0E0,0E0,0E0,0E0,0E0,0E0,0E0,0E0,0E0,0E0,0E0,0E0,0E0,0E0],"parents":[2147483647,0,0,1,1,2,2,3,3,4,4,7,7,8,8,9,9,10,10,11,11,12,12,14,14,17,17,18,18,19,19,20,20,21,21,22,22,23,23,24,24,26,26],"right_children":[2,4,6,8,10,-1,-1,12,14,16,18,20,22,-1,24,-1,-1,26,28,30,32,34,36,38,40,-1,42,-1,-1,-1,-1,-1,-1,-1,-1,-1,-1,-1,-1,-1,-1,-1,-1],"split_conditions":[1E0,1E0,1.3253012E-1,3.7349397E-1,2.6684457E-3,7.33982E-2,3.248619E-1,1E0,1E0,1.8072289E-1,1E0,1E0,1E0,3.03573E-1,2.9855072E-1,-2.0774555E-1,2.397973E-1,1E0,5.9372913E-3,3.2520324E-2,1E0,2.4390243E-2,2.1347564E-3,3.505618E-1,4.336224E-3,-2.9743084E-1,1.8012008E-2,2.5441316E-1,-2.0575024E-2,-3.703606E-2,1.565999E-2,1.28299715E-2,3.2535714E-1,9.448477E-2,-7.665169E-2,-4.8786037E-2,-3.076024E-1,-3.3196813E-1,-3.865769E-2,2.732788E-1,-4.0040478E-2,-9.102199E-2,2.577261E-1],"split_indices":[23,9,5,5,1,0,0,16,7,5,22,20,18,0,3,0,0,21,1,2,11,2,1,4,1,0,1,0,0,0,0,0,0,0,0,0,0,0,0,0,0,0,0],"split_type":[0,0,0,0,0,0,0,0,0,0,0,0,0,0,0,0,0,0,0,0,0,0,0,0,0,0,0,0,0,0,0,0,0,0,0,0,0,0,0,0,0,0,0],"sum_hessian":[2.9788027E3,2.9682751E3,1.0527498E1,2.9284492E3,3.982604E1,1.1840363E0,9.343462E0,2.6854863E3,2.4296288E2,4.941741E0,3.4884296E1,2.4132224E3,2.7226392E2,6.602368E1,1.7693918E2,1.3853691E0,3.556372E0,3.193326E1,2.951038E0,2.072085E3,3.4113736E2,2.3450536E2,3.7758568E1,1.6132889E1,1.6080629E2,2.317247E1,8.760789E0,1.728257E0,1.222781E0,8.980259E2,1.1740591E3,3.0277997E2,3.8357407E1,8.303301E1,1.5147234E2,1.2460531E0,3.6512512E1,8.082987E0,8.049901E0,8.150486E0,1.526558E2,7.7267585E0,1.0340304E0],"tree_param":{"num_deleted":"0","num_feature":"26","num_nodes":"43","size_leaf_vector":"1"}},{"base_weights":[-1.5107207E-3,-1.6962703E-2,2.1173556E-1,6.045733E-3,-2.0602517E-1,1.14307545E-1,6.7582977E-1,-1.637294E-3,1.2746679E0,-4.427411E-1,-2.8742349E-2,6.5571025E-2,1.3010451E0,9.4833654E-1,4.3542366E-2,3.5194266E-1,-1.2636241E-2,2.1251473E0,-1.9648618E-1,-5.659641E-1,1.6168839E-1,1.2122736E0,-1.3342993E-1,-2.9504837E-2,3.559498E-1,1.0996603E-1,4.5906818E-1,1.4812318E0,5.7639056E-1,-3.5455018E-1,6.1155206E-1,-2.0015806E-1,3.10461E-1,-6.505129E-3,-6.182386E-1,1.0296547E0,1.1773269E0,-2.690089E-1,3.2617047E-1,-6.5201813E-1,-1.6138396E-1,-4.1757533E-1,1.1389745E0,3.3829486E-1,1.8042556E0,-1.0108962E0,-6.1028834E-2,6.9626115E-2,-4.5944577E-1,8.949294E-1,1.2179085E-1,2.0398285E0,2.683786E-1,9.734349E-1,-4.4282815E-1,-2.9319546E-1,5.9957325E-1,-1.0596616E-1,1.1566516E-1,8.680985E-3,-3.2675073E-2,-2.9271314E-1,1.2889991E-2,4.5423257E-1,-3.5490576E-2,-1.3840541E-1,-2.7739194E-1,-1.3629608E-1,4.6751305E-1,1.8649514E-1,-2.961372E-1,1.4535402E-1,4.982828E-1,3.6353356E-1,-5.534925E-2,6.748611E-1,5.0675698E-2,-3.1938437E-1,-6.9964714E-2,9.078784E-2,-7.461605E-2,2.8105295E-1,-6.4948476E-3,-1.2748605E-2,-2.532075E-1,6.0156643E-2,3.2860488E-1,3.2730934E-1,-3.3891253E-2,9.013049E-1,2.2308283E-1,-1.8705782E-1,2.601562E-1,-1.7435447E-3,3.3796236E-1,9.4331294E-2,-2.362709E-1,2.151288E-1,3.796325E-2],"categories":[],"categories_nodes":[],"categories_segments":[],"categories_sizes":[],"default_left":[0,0,0,0,0,0,0,0,0,0,0,0,0,0,0,0,0,0,0,0,0,0,0,0,0,0,0,0,0,0,0,0,0,0,0,0,0,0,0,0,0,0,0,0,0,0,0,0,0,0,0,0,0,0,0,0,0,0,0,0,0,0,0,0,0,0,0,0,0,0,0,0,0,0,0,0,0,0,0,0,0,0,0,0,0,0,0,0,0,0,0,0,0,0,0,0,0,0,0],"id":18,"left_children":[1,3,5,7,9,11,13,15,17,19,21,23,25,27,29,31,33,35,37,39,41,43,45,47,49,-1,-1,51,53,55,-1,57,-1,59,61,63,-1,-1,-1,65,67,69,71,73,75,77,79,81,83,85,87,89,91,93,95,-1,97,-1,-1,-1,-1,-1,-1,-1,-1,-1,-1,-1,-1,-1,-1,-1,-1,-1,-1,-1,-1,-1,-1,-1,-1,-1,-1,-1,-1,-1,-1,-1,-1,-1,-1,-1,-1,-1,-1,-1,-1,-1,-1],"loss_changes":[9.637984E0,1.1864864E1,8.858542E0,2.3709663E1,1.2405707E1,9.431248E0,5.8317833E0,9.410736E0,1.8739033E1,9.524288E0,2.2283014E1,4.402994E0,8.1782913E-1,3.8579826E0,9.708214E0,2.773283E1,8.7092495E0,1.4415863E1,6.619502E0,3.5651932E0,1.30573015E1,6.294117E0,9.971179E0,5.179755E0,4.853525E0,0E0,0E0,5.6412334E0,6.7589955E0,6.6966014E0,0E0,3.8303456E0,0E0,8.439094E0,5.5985727E0,4.1698074E0,0E0,0E0,0E0,4.0751114E0,1.0692749E1,9.305995E0,2.1123085E0,3.24649E0,5.2454853E0,2.5190163E-1,1.0105423E1,7.8582397E0,3.6140552E0,1.4158373E0,6.6238837E0,5.3957005E0,2.6941023E0,1.7406149E0,1.5715137E0,0E0,1.6949213E-1,0E0,0E0,0E0,0E0,0E0,0E0,0E0,0E0,0E0,0E0,0E0,0E0,0E0,0E0,0E0,0E0,0E0,0E0,0E0,0E0,0E0,0E0,0E0,0E0,0E0,0E0,0E0,0E0,0E0,0E0,0E0,0E0,0E0,0E0,0E0,0E0,0E0,0E0,0E0,0E0,0E0,0E0],"parents":[2147483647,0,0,1,1,2,2,3,3,4,4,5,5,6,6,7,7,8,8,9,9,10,10,11,11,12,12,13,13,14,14,15,15,16,16,17,17,18,18,19,19,20,20,21,21,22,22,23,23,24,24,27,27,28,28,29,29,31,31,33,33,34,34,35,35,39,39,40,40,41,41,42,42,43,43,44,44,45,45,46,46,47,47,48,48,49,49,50,50,51,51,52,52,53,53,54,54,56,56],"right_children":[2,4,6,8,10,12,14,16,18,20,22,24,26,28,30,32,34,36,38,40,42,44,46,48,50,-1,-1,52,54,56,-1,58,-1,60,62,64,-1,-1,-1,66,68,70,72,74,76,78,80,82,84,86,88,90,92,94,96,-1,98,-1,-1,-1,-1,-1,-1,-1,-1,-1,-1,-1,-1,-1,-1,-1,-1,-1,-1,-1,-1,-1,-1,-1,-1,-1,-1,-1,-1,-1,-1,-1,-1,-1,-1,-1,-1,-1,-1,-1,-1,-1,-1],"split_conditions":[6.086956E-1,1.4192795E-2,1E0,1.400934E-2,1.7344896E-2,2.016129E-1,1.6844563E-2,2.6684457E-3,4.8780486E-2,1E0,1.7678453E-2,1E0,4.1067415E-1,3.493976E-1,4.642857E-1,1.9277108E-1,1E0,1E0,1E0,2.2891566E-1,4.6067417E-1,7.258064E-2,1.8012008E-2,7.3913044E-1,1.3342228E-2,1.0996603E-1,4.5906818E-1,4.0650405E-2,1.1274016E-2,5.078652E-1,6.1155206E-1,1E0,3.10461E-1,8.064516E-2,6.123595E-1,2.8695652E-1,1.1773269E0,-2.690089E-1,3.2617047E-1,5.691057E-2,9.756097E-2,1.46771185E-2,3.3913043E-1,3.2258064E-2,1E0,6.1685395E-1,1E0,2.1910113E-1,4.5786518E-1,2.9382023E-1,1.8072289E-1,4.3483147E-1,4.0393257E-1,6.666667E-1,3.2520324E-2,-2.9319546E-1,2.0481928E-1,-1.0596616E-1,1.1566516E-1,8.680985E-3,-3.2675073E-2,-2.9271314E-1,1.2889991E-2,4.5423257E-1,-3.5490576E-2,-1.3840541E-1,-2.7739194E-1,-1.3629608E-1,4.6751305E-1,1.8649514E-1,-2.961372E-1,1.4535402E-1,4.982828E-1,3.6353356E-1,-5.534925E-2,6.748611E-1,5.0675698E-2,-3.1938437E-1,-6.9964714E-2,9.078784E-2,-7.461605E-2,2.8105295E-1,-6.4948476E-3,-1.2748605E-2,-2.532075E-1,6.0156643E-2,3.2860488E-1,3.2730934E-1,-3.3891253E-2,9.013049E-1,2.2308283E-1,-1.8705782E-1,2.601562E-1,-1.7435447E-3,3.3796236E-1,9.4331294E-2,-2.362709E-1,2.151288E-1,3.796325E-2],"split_indices":[3,1,14,1,1,0,1,1,2,14,1,10,4,5,6,5,9,18,19,5,4,0,1,3,1,0,0,2,1,4,0,15,0,0,4,3,0,0,0,2,2,1,3,0,19,4,7,4,4,4,5,4,4,3,2,0,5,0,0,0,0,0,0,0,0,0,0,0,0,0,0,0,0,0,0,0,0,0,0,0,0,0,0,0,0,0,0,0,0,0,0,0,0,0,0,0,0,0,0],"split_type":[0,0,0,0,0,0,0,0,0,0,0,0,0,0,0,0,0,0,0,0,0,0,0,0,0,0,0,0,0,0,0,0,0,0,0,0,0,0,0,0,0,0,0,0,0,0,0,0,0,0,0,0,0,0,0,0,0,0,0,0,0,0,0,0,0,0,0,0,0,0,0,0,0,0,0,0,0,0,0,0,0,0,0,0,0,0,0,0,0,0,0,0,0,0,0,0,0,0,0],"sum_hessian":[2.9228745E3,2.7262488E3,1.9662555E2,2.43133E3,2.9491885E2,1.635397E2,3.308584E1,2.4176868E3,1.3643281E1,1.2564914E2,1.692697E2,1.5810208E2,5.4376283E0,2.277171E1,1.031413E1,7.20038E1,2.3456829E3,8.363669E0,5.2796116E0,1.0442418E2,2.1224962E1,1.2345103E1,1.569246E2,1.1978157E2,3.8320507E1,1.582869E0,3.854759E0,8.134642E0,1.4637068E1,9.283832E0,1.0302991E0,4.0206482E1,3.1797316E1,2.3231738E3,2.2509045E1,6.1757884E0,2.1878808E0,3.6113014E0,1.6683104E0,8.560454E1,1.8819643E1,1.3685762E1,7.539199E0,5.6197653E0,6.725338E0,1.0973129E1,1.4595148E2,9.801941E1,2.1762157E1,1.0751396E1,2.756911E1,5.1026855E0,3.0319562E0,1.0565945E1,4.071123E0,5.6026216E0,3.6812093E0,3.2190987E1,8.015494E0,1.7264255E3,5.967484E2,1.4301484E1,8.2075615E0,4.1186857E0,2.0571032E0,5.195817E1,3.3646362E1,1.6709284E1,2.1103604E0,4.8127356E0,8.873028E0,4.2005944E0,3.3386045E0,1.6107016E0,4.0090637E0,4.990821E0,1.7345171E0,9.919011E0,1.0541185E0,4.947687E1,9.64746E1,8.452035E0,8.9567375E1,1.0974451E1,1.0787707E1,2.8561242E0,7.895272E0,4.664363E0,2.2904749E1,2.1701162E0,2.9325695E0,1.2013341E0,1.8306221E0,1.558707E0,9.007237E0,1.3010703E0,2.770053E0,2.5353444E0,1.145865E0],"tree_param":{"num_deleted":"0","num_feature":"26","num_nodes":"99","size_leaf_vector":"1"}},{"base_weights":[-2.2111046E-4,-1.8333556E-1,1.6373005E-2,-9.591142E-2,-5.006773E-1,1.3010337E-2,9.391441E-1,1.0054295E-1,-2.4910988E-1,-8.5986406E-1,4.1366768E-1,1.0013963E-1,-1.0680735E-2,5.753406E-2,3.0390275E-1,-6.6676736E-1,2.6798362E-1,2.798431E-1,-3.514336E-1,-3.2448766E-1,-4.154536E-1,8.744311E-1,-4.6361107E-1,5.8497824E-2,5.023254E-1,-6.1038196E-1,5.8441184E-4,-8.0643547E-1,1.9364388E-1,4.9163708E-1,-2.7622798E-1,8.1741744E-1,-2.8299654E-1,-6.0415197E-2,-5.624362E-1,-2.9020485E-1,8.013014E-2,-1.1483473E-1,1.8840842E0,4.7542654E-2,-2.2828938E-1,1.0093267E-1,-3.2296282E-1,1.965123E-2,6.212486E-1,-7.3069316E-1,6.146913E-2,2.8005195E-1,-1.2804414E-2,1.0275781E-1,-2.869131E-1,1.1586926E-1,7.272205E-1,-2.1257076E-1,1.3967395E-1,-2.3344055E-1,4.1839895E-1,-2.0590055E-1,2.1108432E-1,-8.7329075E-2,1.6179718E-1,3.486933E-1,-1.9314188E-1,2.5837976E-1,-9.362633E-2,-2.440805E-1,1.590765E-1,9.2694587E-1,-1.9057868E-1,5.444089E-2,-2.6895948E-2,1.1749343E-1,-1.7443374E-1,1.11569814E-1,-3.0445084E-1,-2.756683E-1,2.0994745E-1,-4.6569973E-2,-3.0320537E-1,-1.7243971E-1,5.208805E-1,1.3002214E-1,-1.4380917E-1,-1.7655881E-1,-1.5471516E-4],"categories":[],"categories_nodes":[],"categories_segments":[],"categories_sizes":[],"default_left":[0,0,0,0,0,0,0,0,0,0,0,0,0,0,0,0,0,0,0,0,0,0,0,0,0,0,0,0,0,0,0,0,0,0,0,0,0,0,0,0,0,0,0,0,0,0,0,0,0,0,0,0,0,0,0,0,0,0,0,0,0,0,0,0,0,0,0,0,0,0,0,0,0,0,0,0,0,0,0,0,0,0,0,0,0],"id":19,"left_children":[1,3,5,7,9,11,13,15,17,19,21,23,25,-1,-1,27,29,31,33,-1,35,37,39,41,43,45,47,49,-1,51,53,55,57,59,61,-1,63,65,67,-1,-1,69,71,73,75,77,79,81,83,-1,-1,-1,-1,-1,-1,-1,-1,-1,-1,-1,-1,-1,-1,-1,-1,-1,-1,-1,-1,-1,-1,-1,-1,-1,-1,-1,-1,-1,-1,-1,-1,-1,-1,-1,-1],"loss_changes":[8.8003845E0,6.628354E0,8.227848E0,5.740617E0,1.7348133E1,5.4647903E0,3.3722115E-1,1.096059E1,5.8890367E0,3.2436142E0,6.5769496E0,9.449013E0,1.4065512E1,0E0,0E0,3.3282075E0,8.607219E0,5.6468353E0,5.4980545E0,0E0,3.933373E0,1.0560866E1,1.214029E0,8.352549E0,3.028224E0,3.1479177E0,7.653851E0,2.7894287E0,0E0,9.184706E0,7.0368524E0,9.753824E0,4.2579937E0,5.5506268E0,8.060753E0,0E0,2.8274148E0,3.214343E0,1.7707123E1,0E0,0E0,7.127422E0,9.775819E0,4.569195E0,5.782089E0,5.101528E0,8.193889E0,1.1098858E1,1.3810308E1,0E0,0E0,0E0,0E0,0E0,0E0,0E0,0E0,0E0,0E0,0E0,0E0,0E0,0E0,0E0,0E0,0E0,0E0,0E0,0E0,0E0,0E0,0E0,0E0,0E0,0E0,0E0,0E0,0E0,0E0,0E0,0E0,0E0,0E0,0E0,0E0],"parents":[2147483647,0,0,1,1,2,2,3,3,4,4,5,5,6,6,7,7,8,8,9,9,10,10,11,11,12,12,15,15,16,16,17,17,18,18,20,20,21,21,22,22,23,23,24,24,25,25,26,26,27,27,29,29,30,30,31,31,32,32,33,33,34,34,36,36,37,37,38,38,41,41,42,42,43,43,44,44,45,45,46,46,47,47,48,48],"right_children":[2,4,6,8,10,12,14,16,18,20,22,24,26,-1,-1,28,30,32,34,-1,36,38,40,42,44,46,48,50,-1,52,54,56,58,60,62,-1,64,66,68,-1,-1,70,72,74,76,78,80,82,84,-1,-1,-1,-1,-1,-1,-1,-1,-1,-1,-1,-1,-1,-1,-1,-1,-1,-1,-1,-1,-1,-1,-1,-1,-1,-1,-1,-1,-1,-1,-1,-1,-1,-1,-1,-1],"split_conditions":[1.16292134E-1,1E0,1E0,6.837892E-3,2.6506025E-1,5.1367576E-3,1.3405797E-1,3.2022472E-2,1.6260162E-2,1.8072289E-1,7.52809E-2,5.0026686E-3,5.2128085E-3,5.753406E-2,3.0390275E-1,6.5043364E-3,1E0,9.261841E-3,5.449438E-2,-3.2448766E-1,1E0,4.8387095E-2,2.4193548E-2,1E0,2.5674158E-1,1E0,1.269663E-1,2.8352235E-3,1.9364388E-1,1.8548387E-1,4.0650405E-2,1.2753624E-1,1E0,1E0,3.6144577E-2,-2.9020485E-1,2.4193548E-2,3.253012E-1,2.1428572E-1,4.7542654E-2,-2.2828938E-1,1E0,3.1687792E-3,1.4285715E-1,4.4927537E-2,3.2258064E-2,8.8709675E-2,9.677419E-2,1.3932584E-1,1.0275781E-1,-2.869131E-1,1.1586926E-1,7.272205E-1,-2.1257076E-1,1.3967395E-1,-2.3344055E-1,4.1839895E-1,-2.0590055E-1,2.1108432E-1,-8.7329075E-2,1.6179718E-1,3.486933E-1,-1.9314188E-1,2.5837976E-1,-9.362633E-2,-2.440805E-1,1.590765E-1,9.2694587E-1,-1.9057868E-1,5.444089E-2,-2.6895948E-2,1.1749343E-1,-1.7443374E-1,1.11569814E-1,-3.0445084E-1,-2.756683E-1,2.0994745E-1,-4.6569973E-2,-3.0320537E-1,-1.7243971E-1,5.208805E-1,1.3002214E-1,-1.4380917E-1,-1.7655881E-1,-1.5471516E-4],"split_indices":[4,12,23,1,5,1,3,4,2,5,4,1,1,0,0,1,14,1,4,0,10,0,0,16,4,17,4,1,0,0,2,3,14,11,5,0,0,5,6,0,0,19,1,6,3,0,0,0,4,0,0,0,0,0,0,0,0,0,0,0,0,0,0,0,0,0,0,0,0,0,0,0,0,0,0,0,0,0,0,0,0,0,0,0,0],"split_type":[0,0,0,0,0,0,0,0,0,0,0,0,0,0,0,0,0,0,0,0,0,0,0,0,0,0,0,0,0,0,0,0,0,0,0,0,0,0,0,0,0,0,0,0,0,0,0,0,0,0,0,0,0,0,0,0,0,0,0,0,0,0,0,0,0,0,0,0,0,0,0,0,0,0,0,0,0,0,0,0,0,0,0,0,0],"sum_hessian":[2.8941882E3,2.3964795E2,2.6545403E3,1.889081E2,5.073986E1,2.6459124E3,8.62786E0,8.291963E1,1.0598846E2,3.6471973E1,1.4267886E1,5.6495074E2,2.0809614E3,1.0995008E0,7.52836E0,1.43191E1,6.860053E1,1.6898478E1,8.908998E1,2.3374315E1,1.3097658E1,9.356776E0,4.9111104E0,5.129826E2,5.1968124E1,3.738867E1,2.0435729E3,1.3290039E1,1.0290619E0,4.8687958E1,1.9912575E1,8.411884E0,8.486593E0,3.7985733E1,5.1104248E1,5.7463846E0,7.3512735E0,5.173755E0,4.183021E0,1.7393346E0,3.1717756E0,4.6229135E2,5.0691296E1,1.0503352E1,4.146477E1,3.1635914E1,5.7527575E0,9.251764E1,1.9510552E3,1.3858953E0,1.1904143E1,4.73074E1,1.3805577E0,1.2608743E1,7.303833E0,2.1423223E0,6.269562E0,6.2399683E0,2.246625E0,2.7805387E1,1.0180346E1,1.7038825E0,4.9400364E1,2.0575666E0,5.293707E0,2.3581567E0,2.8155985E0,2.6759164E0,1.5071048E0,3.2500143E2,1.372899E2,1.332833E1,3.7362965E1,8.313173E0,2.1901789E0,1.4936657E0,3.9971107E1,1.0863279E1,2.0772635E1,4.644916E0,1.1078413E0,7.7330864E1,1.5186779E1,3.9794464E1,1.9112607E3],"tree_param":{"num_deleted":"0","num_feature":"26","num_nodes":"85","size_leaf_vector":"1"}},{"base_weights":[-1.6240305E-3,2.4332108E-2,-9.701682E-2,1.388871E-1,-1.11721335E-2,-3.141516E-1,3.5302654E-2,6.1718114E-2,4.0617707E-1,-9.3378134E-2,4.913972E-2,-3.4685695E-1,3.6644113E-1,8.5835926E-2,-2.2395255E-1,8.4979855E-2,-8.884307E-1,-1.1725864E-1,7.175897E-1,6.6051215E-1,3.2671608E-2,-3.7926984E-1,3.6893305E-1,7.3490006E-1,-6.528616E-1,-4.1429847E-3,2.78172E-1,-3.6793718E-1,6.795524E-1,-5.80973E-1,1.0987156E-1,-3.0062142E-1,-4.191367E-1,-8.653928E-2,-8.3195394E-1,1.0302385E0,-3.1830784E-2,1.3694503E0,-8.040271E-2,-2.095354E-1,7.311982E-2,-8.029562E-1,-3.1605834E-1,7.1646476E-1,-2.1883349E-1,-2.3572981E-2,5.0873345E-1,-3.0670434E-1,1.6170394E-2,1.8032598E-1,-3.6968845E-1,9.08646E-1,1.20769136E-1,-5.2768346E-2,-8.1857526E-1,-1.9382864E-1,9.6910864E-1,-2.3431605E-1,-1.0500121E-2,7.996309E-3,9.714669E-2,3.9339527E-2,-2.4698544E-1,5.758626E-2,-4.343359E-2,-2.83377E-1,-1.033489E-1,1.1745016E-1,6.283867E-1,2.7228665E-1,-2.8348616E-1,6.087516E-1,4.834034E-2,1.4824739E-1,-2.927638E-1,-8.611843E-2,9.000937E-2,1.0699418E-1,3.557719E-3,-3.214756E-1,-8.25549E-2,-7.8376785E-2,-2.6144937E-1,3.104847E-1,-5.2250702E-2,-3.3415756E-1,2.9600075E-1,1.5231368E-1,-1.85425E-1,3.8277734E-2,4.2777824E-1,-1.4038953E-1,7.858523E-2,3.022693E-1,-7.6098053E-4,1.1902694E-1,-1.3402778E-1,-3.6520368E-1,-8.1713624E-2,1.1488452E-1,-2.0014176E-1,7.1462765E-2,3.9203066E-1],"categories":[],"categories_nodes":[],"categories_segments":[],"categories_sizes":[],"default_left":[0,0,0,0,0,0,0,0,0,0,0,0,0,0,0,0,0,0,0,0,0,0,0,0,0,0,0,0,0,0,0,0,0,0,0,0,0,0,0,0,0,0,0,0,0,0,0,0,0,0,0,0,0,0,0,0,0,0,0,0,0,0,0,0,0,0,0,0,0,0,0,0,0,0,0,0,0,0,0,0,0,0,0,0,0,0,0,0,0,0,0,0,0,0,0,0,0,0,0,0,0,0,0],"id":20,"left_children":[1,3,5,7,9,11,13,15,-1,17,19,21,23,25,27,29,31,33,35,37,39,41,43,45,47,49,51,53,55,57,59,-1,61,63,65,67,69,71,73,75,77,79,81,83,85,87,-1,-1,-1,89,91,-1,93,95,97,99,101,-1,-1,-1,-1,-1,-1,-1,-1,-1,-1,-1,-1,-1,-1,-1,-1,-1,-1,-1,-1,-1,-1,-1,-1,-1,-1,-1,-1,-1,-1,-1,-1,-1,-1,-1,-1,-1,-1,-1,-1,-1,-1,-1,-1,-1,-1],"loss_changes":[7.129669E0,9.20811E0,1.770683E1,5.0140633E1,8.576803E0,5.3204E0,5.044715E0,1.1230638E1,0E0,1.4260742E1,1.0025873E1,5.316679E0,4.6801147E0,5.5693436E0,8.426228E0,8.2454405E0,2.2788048E-1,1.5558709E1,4.971881E0,1.3831974E1,9.545889E0,5.4763355E0,2.2348075E0,6.369534E0,9.6881413E-1,1.4914122E1,4.403895E1,7.7483397E0,2.4614515E0,1.9326673E0,8.477262E0,0E0,1.0169315E0,1.1117231E1,1.2791367E0,9.312815E0,7.012984E0,1.0359209E1,7.5404153E0,5.5958495E0,1.448769E1,3.551138E0,5.4896774E0,2.060017E0,6.0039983E0,2.158381E0,0E0,0E0,0E0,9.474366E0,4.7270565E0,0E0,1.0724146E1,6.083989E0,4.5709496E0,1.0940709E0,1.3961911E0,0E0,0E0,0E0,0E0,0E0,0E0,0E0,0E0,0E0,0E0,0E0,0E0,0E0,0E0,0E0,0E0,0E0,0E0,0E0,0E0,0E0,0E0,0E0,0E0,0E0,0E0,0E0,0E0,0E0,0E0,0E0,0E0,0E0,0E0,0E0,0E0,0E0,0E0,0E0,0E0,0E0,0E0,0E0,0E0,0E0,0E0],"parents":[2147483647,0,0,1,1,2,2,3,3,4,4,5,5,6,6,7,7,9,9,10,10,11,11,12,12,13,13,14,14,15,15,16,16,17,17,18,18,19,19,20,20,21,21,22,22,23,23,24,24,25,25,26,26,27,27,28,28,29,29,30,30,32,32,33,33,34,34,35,35,